{"learner":{"attributes":{"best_iteration":"99","best_ntree_limit":"100","scikit_learn":"{\"use_label_encoder\": false, \"n_estimators\": 100, \"objective\": \"binary:logistic\", \"max_depth\": 10, \"max_leaves\": null, \"max_bin\": null, \"grow_policy\": null, \"learning_rate\": 0.05, \"verbosity\": null, \"booster\": null, \"tree_method\": null, \"gamma\": null, \"min_child_weight\": 1, \"max_delta_step\": null, \"subsample\": 0.7, \"sampling_method\": null, \"colsample_bytree\": 0.7, \"colsample_bylevel\": null, \"colsample_bynode\": null, \"reg_alpha\": null, \"reg_lambda\": null, \"scale_pos_weight\": null, \"base_score\": null, \"missing\": NaN, \"num_parallel_tree\": null, \"random_state\": null, \"n_jobs\": null, \"monotone_constraints\": null, \"interaction_constraints\": null, \"importance_type\": null, \"gpu_id\": null, \"validate_parameters\": null, \"predictor\": null, \"enable_categorical\": false, \"max_cat_to_onehot\": null, \"eval_metric\": null, \"early_stopping_rounds\": null, \"callbacks\": null, \"classes_\": [0, 1], \"n_classes_\": 2, \"_estimator_type\": \"classifier\"}"},"feature_names":["don_loss_alt_mag","don_loss_decrease","acc_loss_alt_mag","acc_loss_decrease","don_gain_alt_mag","don_gain_increase","acc_gain_alt_mag","acc_gain_increase","max_bpp_zscore","bpzsc_ref_minus_alt","bpp_tray_ref","bpp_tray_alt","enhancer_alt_mag","enhancer_increase","silencer_alt_mag","silencer_increase","don_region","acc_region","bp_region","esr_region","ne_don_gain_sus","ne_acc_gain_sus","di_don_gain_sus_score","di_don_gain_dist_score","di_acc_gain_1_sus_score","di_acc_gain_1_dist_score","di_acc_gain_sus_2","di_esr_gain_sus","di_bp_gain_sus","bg_pseudoexon_sample_count","bg_pseudoexon_coverage_sum","bg_acc_mes_sample_count","bg_acc_mes_coverage_sum","bg_don_mes_sample_count","bg_don_mes_coverage_sum","bg_acc_sai_sample_count","bg_acc_sai_coverage_sum","bg_don_sai_sample_count","bg_don_sai_coverage_sum","DS_AG","DS_AL","DS_DG","DS_DL"],"feature_types":["float","float","float","float","float","float","float","float","float","float","float","float","float","float","float","float","float","float","float","float","float","float","float","float","float","float","float","float","float","float","float","float","float","float","float","float","float","float","float","float","float","float","float"],"gradient_booster":{"model":{"gbtree_model_param":{"num_parallel_tree":"1","num_trees":"100","size_leaf_vector":"0"},"tree_info":[0,0,0,0,0,0,0,0,0,0,0,0,0,0,0,0,0,0,0,0,0,0,0,0,0,0,0,0,0,0,0,0,0,0,0,0,0,0,0,0,0,0,0,0,0,0,0,0,0,0,0,0,0,0,0,0,0,0,0,0,0,0,0,0,0,0,0,0,0,0,0,0,0,0,0,0,0,0,0,0,0,0,0,0,0,0,0,0,0,0,0,0,0,0,0,0,0,0,0,0],"trees":[{"base_weights":[-3.7541372E-1,-1.1374046E0,1.8238533E0,-1.4397163E0,1.4756098E0,1.8962536E0,2.6415095E-1,-1.5233918E0,1.2272727E0,1.7931035E0,-8.5714287E-1,1.4213836E0,1.972912E0,-1.4545455E0,1.3142858E0,8.4210527E-1,-1.5544041E0,1.5844156E0,-9.3333334E-1,4.4444445E-1,1.8550725E0,-1.4285715E0,1.2727273E0,1.8039216E0,6.885246E-1,-2.2222222E-1,1.6E0,-0E0,1.6E0,-1.4173998E0,-1.969697E0,1.8367347E0,1E0,-0E0,-1.2727273E0,-6.666667E-1,1.0769231E0,4E-1,1.8814815E0,-0E0,-1.6129032E0,5E-1,1.8367347E0,-4.7619048E-1,1.1818181E0,8.5714287E-1,-1E0,-1.4958506E0,-1.3114753E-1,-1.9756098E0,-5E-1,1.5555556E0,-1.1111112E0,1.8947369E0,5E-1,1.8723404E0,5E-1,-1E0,6.666667E-1,-2.2222222E-1,1.3846154E0,-1.5701357E0,-6.585366E-1,4E-1,-9.019608E-1,5E-1,1.908397E0,-1.3333334E0,-0E0,-0E0,1.5428572E0,-1.0769231E0,-1.6659877E0,2.6086956E-1,-9.836066E-1,5.882353E-1,-9.0909094E-1,-1.0909091E0,1.8181819E-1,1.9224806E0,5E-1,-1.3699634E0,1.7333333E0,-1.6887052E0,-8E-2,7.4285716E-1,-9.3333334E-1,-6.2068963E-1,-1.6923077E0,-5E-1,8.5714287E-1,-5E-1,-1.5E0,8.5714287E-1,1.951613E0,-1.4817814E0,-2.6666668E-1,-6.363636E-1,-1.7167139E0,1.3333334E0,-1.0588236E0,-3.3333334E-1,1.1111112E0,-1.2727273E0,-0E0,-6.666667E-2,-1.6129032E0,-5E-1,-1.7714286E0,5E-1,-1E0,-1.8181819E-1,1.0204082E0,-1.3333334E0,2.5E-1,-0E0,1.2E0],"categories":[],"categories_nodes":[],"categories_segments":[],"categories_sizes":[],"default_left":[1,1,1,1,1,1,1,1,1,1,1,1,0,0,1,1,1,1,1,1,1,1,0,1,1,0,0,1,0,1,1,0,1,0,0,0,0,0,1,0,0,0,1,1,1,0,0,1,1,0,0,0,0,1,0,0,0,1,0,0,1,1,1,1,1,0,1,0,0,0,0,1,1,1,1,1,0,1,0,1,0,1,0,1,1,1,1,1,1,1,1,1,0,1,0,0,0,0,0,0,0,0,0,0,0,0,0,0,0,0,0,0,0,0,0,0,0],"id":0,"left_children":[1,3,5,7,9,11,13,15,17,19,21,23,-1,-1,25,27,29,31,33,35,37,39,-1,41,43,-1,-1,45,-1,47,49,-1,51,-1,-1,-1,-1,-1,53,-1,-1,-1,55,57,59,-1,-1,61,63,-1,-1,-1,-1,65,-1,-1,-1,67,-1,-1,69,71,73,75,77,-1,79,-1,-1,-1,-1,81,83,85,87,89,-1,91,-1,93,-1,95,-1,97,99,101,103,105,107,109,111,113,-1,115,-1,-1,-1,-1,-1,-1,-1,-1,-1,-1,-1,-1,-1,-1,-1,-1,-1,-1,-1,-1,-1,-1,-1],"loss_changes":[1.7742554E3,6.230211E2,3.027063E1,1.5919861E2,6.226895E1,6.6695557E0,2.582612E1,5.148694E1,1.8454979E1,5.2347107E0,1.4597404E1,9.901726E0,0E0,0E0,4.196826E0,6.063158E0,3.5641968E1,1.001854E0,1.1878788E0,3.880342E0,1.8988647E0,2.3041477E0,0E0,1.7266846E-1,9.324603E0,0E0,0E0,5.5714283E0,0E0,5.141797E1,4.4604492E-1,0E0,1.1111111E1,0E0,0E0,0E0,0E0,0E0,2.886963E-1,0E0,0E0,0E0,2.2991943E-1,3.8095238E0,3.439783E0,0E0,0E0,2.8946411E1,1.2847959E1,0E0,0E0,0E0,0E0,3.1277466E-1,0E0,0E0,0E0,1.3333335E0,0E0,0E0,2.136263E0,1.9101562E1,1.2510317E1,5.15508E0,2.809269E0,0E0,3.3798218E-1,0E0,0E0,0E0,0E0,6.3932602E1,1.31328125E1,7.312629E0,6.7941914E0,5.4033613E0,0E0,1.909091E0,0E0,3.289795E-1,0E0,8.024765E0,0E0,9.606934E0,1.005804E1,3.8380947E0,1.1878788E0,1.1848648E1,3.4067154E-2,2.5E0,2.560297E0,4.0833335E0,0E0,1.0285714E0,0E0,0E0,0E0,0E0,0E0,0E0,0E0,0E0,0E0,0E0,0E0,0E0,0E0,0E0,0E0,0E0,0E0,0E0,0E0,0E0,0E0,0E0,0E0],"parents":[2147483647,0,0,1,1,2,2,3,3,4,4,5,5,6,6,7,7,8,8,9,9,10,10,11,11,14,14,15,15,16,16,17,17,18,18,19,19,20,20,21,21,23,23,24,24,27,27,29,29,30,30,32,32,38,38,42,42,43,43,44,44,47,47,48,48,53,53,57,57,60,60,61,61,62,62,63,63,64,64,66,66,71,71,72,72,73,73,74,74,75,75,77,77,79,79,81,81,83,83,84,84,85,85,86,86,87,87,88,88,89,89,90,90,91,91,93,93],"right_children":[2,4,6,8,10,12,14,16,18,20,22,24,-1,-1,26,28,30,32,34,36,38,40,-1,42,44,-1,-1,46,-1,48,50,-1,52,-1,-1,-1,-1,-1,54,-1,-1,-1,56,58,60,-1,-1,62,64,-1,-1,-1,-1,66,-1,-1,-1,68,-1,-1,70,72,74,76,78,-1,80,-1,-1,-1,-1,82,84,86,88,90,-1,92,-1,94,-1,96,-1,98,100,102,104,106,108,110,112,114,-1,116,-1,-1,-1,-1,-1,-1,-1,-1,-1,-1,-1,-1,-1,-1,-1,-1,-1,-1,-1,-1,-1,-1,-1],"split_conditions":[5.5E-2,1.14999995E-1,3.505E0,2.1000001E-1,1.075E0,2.25E-1,6.0000002E-2,9.45E-1,5.445E0,1.3499999E-1,4.555E0,5E-1,9.86456E-2,-7.272728E-2,1.6E-1,5E-1,5.95E-1,2E0,4.675E0,-9.045E0,3.29E0,4.1000004E0,6.363636E-2,-9.655001E0,9E-1,-1.1111111E-2,8.0000006E-2,-3E-2,8.0000006E-2,2.4999999E-2,1.355E2,9.1836736E-2,4.955E0,-0E0,-6.363636E-2,-3.3333335E-2,5.3846158E-2,2.0000001E-2,1.2045E1,-0E0,-8.064517E-2,2.5E-2,9.85E1,1.1E-1,3.995E0,4.2857144E-2,-5E-2,5E-3,2.15E1,-9.878049E-2,-2.5E-2,7.777778E-2,-5.555556E-2,-4.39E0,2.5E-2,9.361702E-2,2.5E-2,8.8E1,3.3333335E-2,-1.1111111E-2,8.8E-1,7.5E0,1.45E1,5E-1,2.455E0,2.5E-2,9.4E1,-6.666667E-2,-0E0,-0E0,7.714286E-2,5E-1,3.7E1,5E-1,4.05E-1,-1.0530001E1,-4.5454547E-2,4.5E-2,9.09091E-3,1.6499999E-1,2.5E-2,1.855E0,8.6666666E-2,-5.85E-1,-1.45E-1,4.025E0,-5.3499997E-1,9.65E-1,-2.315E0,5.395E0,-1.395E0,4.525E0,-7.5E-2,-9.7E-1,9.758065E-2,-7.408907E-2,-1.3333335E-2,-3.181818E-2,-8.5835695E-2,6.666667E-2,-5.294118E-2,-1.6666668E-2,5.555556E-2,-6.363636E-2,-0E0,-3.3333336E-3,-8.064517E-2,-2.5E-2,-8.857143E-2,2.5E-2,-5E-2,-9.09091E-3,5.102041E-2,-6.666667E-2,1.25E-2,-0E0,6.0000002E-2],"split_indices":[41,39,0,42,2,41,42,8,0,39,3,19,0,0,41,19,2,0,8,4,8,8,0,6,4,0,0,7,0,39,38,0,8,0,0,0,0,0,6,0,0,0,23,42,8,0,0,41,20,0,0,0,0,7,0,0,0,20,0,0,5,20,20,17,7,0,35,0,0,0,0,19,33,19,12,4,0,39,0,39,0,7,0,13,13,8,4,0,7,8,7,8,0,5,0,0,0,0,0,0,0,0,0,0,0,0,0,0,0,0,0,0,0,0,0,0,0],"split_type":[0,0,0,0,0,0,0,0,0,0,0,0,0,0,0,0,0,0,0,0,0,0,0,0,0,0,0,0,0,0,0,0,0,0,0,0,0,0,0,0,0,0,0,0,0,0,0,0,0,0,0,0,0,0,0,0,0,0,0,0,0,0,0,0,0,0,0,0,0,0,0,0,0,0,0,0,0,0,0,0,0,0,0,0,0,0,0,0,0,0,0,0,0,0,0,0,0,0,0,0,0,0,0,0,0,0,0,0,0,0,0,0,0,0,0,0,0],"sum_hessian":[1.0565E3,7.85E2,2.715E2,7.04E2,8.1E1,2.5925E2,1.225E1,6.83E2,2.1E1,7.15E1,9.5E0,3.875E1,2.205E2,4.5E0,7.75E0,8.5E0,6.745E2,1.825E1,2.75E0,3.5E0,6.8E1,7.75E0,1.75E0,2.45E1,1.425E1,1.25E0,6.5E0,4.5E0,4E0,5.105E2,1.64E2,1.125E1,7E0,1E0,1.75E0,1.25E0,2.25E0,1.5E0,6.65E1,1E0,6.75E0,1E0,2.35E1,4.25E0,1E1,2.5E0,2E0,4.81E2,2.95E1,1.63E2,1E0,5.75E0,1.25E0,6.55E1,1E0,2.25E1,1E0,3E0,1.25E0,1.25E0,8.75E0,4.41E2,4E1,1.775E1,1.175E1,1E0,6.45E1,2E0,1E0,1E0,7.75E0,7.375E1,3.6725E2,1.05E1,2.95E1,1.6E1,1.75E0,1E1,1.75E0,6.35E1,1E0,6.725E1,6.5E0,3.62E2,5.25E0,7.75E0,2.75E0,2.075E1,8.75E0,3E0,1.3E1,5E0,5E0,2.5E0,6.1E1,6.075E1,6.5E0,1E1,3.52E2,2E0,3.25E0,2E0,5.75E0,1.75E0,1E0,1.4E1,6.75E0,1E0,7.75E0,1E0,2E0,1.75E0,1.125E1,2E0,3E0,1E0,1.5E0],"tree_param":{"num_deleted":"0","num_feature":"43","num_nodes":"117","size_leaf_vector":"0"}},{"base_weights":[-3.152126E-1,-1.0883747E0,1.755257E0,-1.3994457E0,1.459455E0,1.8144718E0,1.6346782E-1,-1.4889638E0,6.994479E-1,1.7593337E0,-2.6818208E-2,1.4428266E0,1.8768333E0,-1.379742E0,1.2589061E0,8.125718E-1,-1.5173812E0,1.251937E0,-1.1299527E0,3.8802359E-1,1.7834833E0,-1.4710197E0,1.5609165E0,1.6334003E0,7.729453E-1,1.8809434E0,6.127348E-1,1.7273131E-1,1.5730009E0,1.3502095E0,7.542122E-2,-1.5460919E0,3.9504802E-1,1.495707E0,2.712178E-1,-1.2919216E0,-1.9560485E-1,-1.6347123E0,-6.2559575E-1,1.6812472E0,3.628538E-1,-3.2573715E-2,1.1926903E0,-9.06386E-1,9.5071E-1,-1.5673127E0,7.8608155E-1,8.6291736E-1,-1.237185E0,1.7678487E0,7.8023756E-1,-3.8308945E-1,9.9832225E-1,-1.5042398E0,-3.9300552E-1,-7.8398985E-1,8.673099E-1,4.8515224E-1,1.5373926E0,-1.6119639E0,-7.0204747E-1,1.2826953E0,-1.05706155E-1,-1.6256908E-1,1.1425394E0,1.5580218E0,-1.1643143E0,-7.8192246E-1,2.3067209E-1,8.954478E-1,-2.3205717E-1,-1.514074E0,-1.8704593E0,9.839118E-2,-1.7141354E0,3.1950675E-2,1.4393848E0,-1.5388744E0,-3.3594552E-1,-1.8763732E0,-6.12662E-1,9.23931E-1,-7.784587E-1,-1.5594014E0,-3.8791922E-1,2.3745987E-1,-1.2349728E0,-2.2797488E-1,1.1043067E0,-1.0574882E0,6.5202224E-1],"categories":[],"categories_nodes":[],"categories_segments":[],"categories_sizes":[],"default_left":[1,1,1,1,1,1,1,1,1,1,1,1,1,0,1,1,1,1,1,0,0,1,0,1,1,0,0,0,0,0,1,1,1,1,1,1,0,0,0,0,0,1,1,0,0,1,1,1,0,0,1,1,0,0,0,0,0,1,0,1,1,0,0,0,1,0,0,0,0,0,0,1,1,1,0,0,0,1,1,0,0,1,1,0,0,0,0,0,0,0,0],"id":1,"left_children":[1,3,5,7,9,11,13,15,17,19,21,23,25,-1,27,29,31,33,35,-1,-1,37,-1,39,41,-1,-1,-1,-1,-1,43,45,47,49,51,53,-1,-1,-1,-1,-1,55,57,-1,-1,59,61,63,-1,-1,65,67,-1,-1,-1,-1,-1,69,-1,71,73,-1,-1,-1,75,-1,-1,-1,-1,-1,-1,77,79,81,-1,-1,-1,83,85,-1,-1,87,89,-1,-1,-1,-1,-1,-1,-1,-1],"loss_changes":[1.7046854E3,6.163544E2,2.6999756E1,1.309248E2,3.785463E1,3.7608032E0,2.1153221E1,4.4616333E1,3.0682587E1,1.6459961E0,3.7210945E1,4.40934E0,7.2021484E-2,0E0,2.1983795E0,3.3625698E0,3.660669E1,5.0248184E0,8.4332466E-1,0E0,0E0,1.5206146E-1,0E0,1.4380493E0,4.0077553E0,0E0,0E0,0E0,0E0,0E0,4.9401135E0,3.3207153E1,9.080718E0,2.1198616E0,3.1149526E0,5.528164E-1,0E0,0E0,0E0,0E0,0E0,4.057316E0,1.1427441E0,0E0,0E0,2.3617798E1,3.0106335E0,2.693173E0,0E0,0E0,1.2011144E1,1.0972981E0,0E0,0E0,0E0,0E0,0E0,1.3842249E0,0E0,1.2562622E1,2.7069748E1,0E0,0E0,0E0,2.2602148E0,0E0,0E0,0E0,0E0,0E0,0E0,1.2529602E1,6.1828613E-2,1.4825931E1,0E0,0E0,0E0,9.720459E0,5.6984344E0,0E0,0E0,2.4323273E0,4.6781445E0,0E0,0E0,0E0,0E0,0E0,0E0,0E0,0E0],"parents":[2147483647,0,0,1,1,2,2,3,3,4,4,5,5,6,6,7,7,8,8,9,9,10,10,11,11,12,12,14,14,15,15,16,16,17,17,18,18,21,21,23,23,24,24,30,30,31,31,32,32,33,33,34,34,35,35,41,41,42,42,45,45,46,46,47,47,50,50,51,51,57,57,59,59,60,60,64,64,71,71,72,72,73,73,77,77,78,78,81,81,82,82],"right_children":[2,4,6,8,10,12,14,16,18,20,22,24,26,-1,28,30,32,34,36,-1,-1,38,-1,40,42,-1,-1,-1,-1,-1,44,46,48,50,52,54,-1,-1,-1,-1,-1,56,58,-1,-1,60,62,64,-1,-1,66,68,-1,-1,-1,-1,-1,70,-1,72,74,-1,-1,-1,76,-1,-1,-1,-1,-1,-1,78,80,82,-1,-1,-1,84,86,-1,-1,88,90,-1,-1,-1,-1,-1,-1,-1,-1],"split_conditions":[5.5E-2,1.3499999E-1,4.175E0,5.5E-2,5E-1,2.25E-1,2E-1,9.45E-1,5.165E0,3.2649999E0,2E-1,1.35E1,2.15E1,-6.89871E-2,1.20000005E-1,-8.0999994E-1,6.3E1,5.5E0,5E-3,1.940118E-2,8.917417E-2,-4.135E0,7.804583E-2,2.92E0,4.75E1,9.4047174E-2,3.063674E-2,8.636566E-3,7.865005E-2,6.751048E-2,1.85E1,3.35E-1,5E-1,1.92E0,-2.39E0,2.79E0,-9.780242E-3,-8.173562E-2,-3.1279787E-2,8.406236E-2,1.814269E-2,1.5E-1,3.29E0,-4.53193E-2,4.75355E-2,3.5E-2,5E-1,-4.8450003E0,-6.185925E-2,8.839244E-2,4.795E0,5.135E0,4.9916115E-2,-7.5211994E-2,-1.9650277E-2,-3.9199494E-2,4.3365497E-2,5.5E0,7.686963E-2,5E-1,5E-1,6.413477E-2,-5.2853078E-3,-8.128454E-3,7.5E0,7.790109E-2,-5.8215715E-2,-3.9096124E-2,1.1533605E-2,4.477239E-2,-1.1602859E-2,3.5E-2,1.0385E1,1.45E1,-8.570677E-2,1.5975338E-3,7.196924E-2,5.3E1,1.7E1,-9.381866E-2,-3.0633101E-2,-1.395E0,5.25E1,-7.797007E-2,-1.939596E-2,1.1872994E-2,-6.1748642E-2,-1.1398744E-2,5.5215336E-2,-5.2874412E-2,3.2601114E-2],"split_indices":[41,39,0,42,17,41,41,8,0,8,40,21,26,0,42,7,34,21,41,0,0,4,0,0,20,0,0,0,0,0,20,40,16,0,4,1,0,0,0,0,0,41,4,0,0,39,17,5,0,0,8,8,0,0,0,0,0,34,0,17,17,0,0,0,20,0,0,0,0,0,0,40,5,20,0,0,0,32,20,0,0,7,32,0,0,0,0,0,0,0,0],"split_type":[0,0,0,0,0,0,0,0,0,0,0,0,0,0,0,0,0,0,0,0,0,0,0,0,0,0,0,0,0,0,0,0,0,0,0,0,0,0,0,0,0,0,0,0,0,0,0,0,0,0,0,0,0,0,0,0,0,0,0,0,0,0,0,0,0,0,0,0,0,0,0,0,0,0,0,0,0,0,0,0,0,0,0,0,0,0,0,0,0,0,0],"sum_hessian":[1.0626968E3,7.7410284E2,2.885939E2,6.9027606E2,8.3826775E1,2.7810834E2,1.0485572E1,6.623186E2,2.7957422E1,6.960014E1,1.4226633E1,4.3428864E1,2.3467946E2,4.245353E0,6.2402186E0,7.741435E0,6.545772E2,2.1715021E1,6.2423997E0,1.49985E0,6.8100296E1,7.4885597E0,6.738074E0,3.2690453E1,1.0738412E1,2.334325E2,1.246964E0,1.7474109E0,4.492808E0,3.9956005E0,3.7458344E0,6.450843E2,9.492897E0,1.6971443E1,4.7435784E0,4.9939938E0,1.2484056E0,5.4916544E0,1.9969049E0,3.119254E1,1.4979128E0,3.9947033E0,6.743709E0,1.7487462E0,1.9970882E0,6.395925E2,5.4917884E0,7.744354E0,1.7485435E0,1.1229289E1,5.742155E0,2.7458086E0,1.9977698E0,3.4950845E0,1.4989095E0,2.2471159E0,1.7475874E0,2.9978197E0,3.7458894E0,6.07386E2,3.2206543E1,3.2458925E0,2.2458959E0,1.748931E0,5.995423E0,4.243579E0,1.498576E0,1.4982411E0,1.2475674E0,1.7488403E0,1.2489793E0,4.4552646E2,1.6185951E2,1.8487755E1,1.3718786E1,1.4981235E0,4.497299E0,4.360413E2,9.4851675E0,1.6061256E2,1.2469558E0,9.494832E0,8.992923E0,4.2805222E2,7.9890685E0,6.2406874E0,3.2444801E0,1.2497643E0,8.245068E0,7.743268E0,1.2496547E0],"tree_param":{"num_deleted":"0","num_feature":"43","num_nodes":"91","size_leaf_vector":"0"}},{"base_weights":[-3.072972E-1,-8.274981E-1,1.508119E0,-1.082282E0,1.3048289E0,1.572237E0,-1.4905076E0,-1.2951398E0,1.1998364E0,1.6185001E0,-8.3744895E-1,7.25042E-2,1.6532711E0,-1.3793299E0,-3.43934E-1,1.4459939E0,-6.26218E-1,9.9776226E-1,1.6928995E0,-1.6610993E0,1.411121E0,-3.472908E-1,8.743325E-1,1.0360618E0,1.7169366E0,6.0680974E-1,-1.4087079E0,-5.8166206E-1,8.2016385E-1,5.3303844E-1,1.6939176E0,-1.0827882E0,1.0718578E0,8.315072E-2,1.3833447E0,-7.357987E-1,8.372887E-1,1.4213558E-1,1.2537652E0,3.6478835E-1,1.3984165E0,1.7295628E0,6.684406E-1,-9.593291E-2,1.2947897E0,-1.4303696E0,1.1209633E0,1.1347874E0,-6.922241E-1,1.1791027E0,-1.2999421E-2,-5.128306E-1,9.889481E-1,1.767043E0,9.700403E-1,-1.4146088E0,2.4630837E-1,-8.1888723E-1,8.7337434E-1,4.9357522E-1,1.5682765E0,-1.106007E0,6.1854696E-1,8.3805627E-1,-4.9494094E-1,1.6014391E0,4.5176467E-1,1.7463896E0,8.6637133E-1,-2.3431465E-1,1.165579E0,1.0789323E0,-6.6181076E-1,-1.2987442E0,-1.7847784E0,1.5337106E0,-2.0197704E-1,-7.8757364E-1,9.134389E-1,1.9225097E-1,1.359646E0,7.345778E-1,-7.5463885E-1,1.8369327E-1,-9.798932E-1,1.1554291E0,1.4573294E-1,1.4355216E0,-1.2702507E-2,-2.9273325E-1,-1.4187615E0,1.3687842E-1,1.067523E0,-8.804612E-1,1.9750345E-1,-1.7264979E-1,1.0134758E0,9.9600416E-1,1.7673533E0,1.2126607E0,-2.1103641E-1,3.8689008E-1,-1.3146117E0,-1.3799444E0,1.2419543E-1,-1.7906955E0,-5.645794E-1,8.080672E-1,-8.6451757E-1,1.3200072E0,1.4675404E-1,2.2074762E-1,1.3064582E0,-1.692708E-1,1.3806978E0,-1.4049499E0,2.4492283E-1,4.2630097E-1,-1.0246141E0,-1.7964619E0,-5.837734E-1,-9.492387E-1,4.2728668E-1,-1.43492E0,-2.4864845E-1,-1.480175E-1,9.4144315E-1,-2.0225498E-1,7.4951863E-1,-1.4035015E0,-1.3459192E-1,-1.1253399E0,-1.4572085E-1],"categories":[],"categories_nodes":[],"categories_segments":[],"categories_sizes":[],"default_left":[1,1,1,1,1,1,0,1,1,1,1,1,1,1,1,1,1,1,0,0,0,1,1,1,1,1,1,1,1,1,1,1,0,1,1,1,0,0,0,1,1,1,1,1,0,1,1,0,1,1,1,1,1,0,1,0,0,0,0,0,0,1,0,1,1,0,1,1,1,0,0,0,1,1,1,0,0,1,0,0,0,0,0,0,0,1,0,0,0,0,0,0,1,0,0,0,0,1,0,0,0,0,0,1,1,1,0,0,1,0,0,0,0,0,0,1,1,1,1,0,0,1,0,0,0,0,0,0,0,0,0,0,0],"id":2,"left_children":[1,3,5,7,9,11,-1,13,15,17,19,21,23,25,27,29,31,33,-1,-1,-1,35,37,39,41,43,45,47,49,51,53,55,-1,57,59,61,-1,-1,-1,63,65,67,69,71,-1,73,75,-1,77,79,81,83,85,-1,87,-1,-1,-1,-1,-1,-1,89,-1,91,93,-1,95,97,99,-1,-1,-1,101,103,105,-1,-1,107,-1,-1,-1,-1,-1,-1,-1,109,-1,-1,-1,-1,-1,-1,111,-1,-1,-1,-1,113,-1,-1,-1,-1,-1,115,117,119,-1,-1,121,-1,-1,-1,-1,-1,-1,123,125,127,129,-1,-1,131,-1,-1,-1,-1,-1,-1,-1,-1,-1,-1,-1],"loss_changes":[1.0013369E3,4.489524E2,4.776013E1,3.592697E2,6.0742203E1,2.8045654E1,0E0,5.3504883E1,2.9378555E1,1.8868256E0,2.446923E1,4.6547246E0,6.859436E0,3.6967285E1,1.6013319E1,1.1799866E1,7.5353827E0,3.6663895E0,0E0,0E0,0E0,4.8501472E0,1.1348488E0,5.103161E0,1.4619141E0,4.823599E0,3.504004E1,9.743821E0,2.9865856E0,6.9179583E0,5.9788513E-1,3.4256907E0,0E0,3.740243E0,4.5654774E-1,4.424597E0,0E0,0E0,0E0,4.2569833E0,2.0891037E0,1.315979E0,2.060666E0,4.5298147E0,0E0,2.592566E1,3.4447875E0,0E0,7.6041985E0,9.777479E-1,2.7613428E0,1.7220505E0,1.1939621E0,0E0,2.8656206E0,0E0,0E0,0E0,0E0,0E0,0E0,1.1661115E0,0E0,8.9354086E-1,1.2367215E0,0E0,1.5699515E0,1.2296143E0,2.3858213E0,0E0,0E0,0E0,3.5848265E0,5.1606018E1,1.5356445E-1,0E0,0E0,5.976164E0,0E0,0E0,0E0,0E0,0E0,0E0,0E0,1.1277342E0,0E0,0E0,0E0,0E0,0E0,0E0,6.668463E-1,0E0,0E0,0E0,0E0,3.5763974E0,0E0,0E0,0E0,0E0,0E0,1.7458008E1,9.095612E0,6.518555E-2,0E0,0E0,4.9465504E0,0E0,0E0,0E0,0E0,0E0,0E0,1.4023743E1,2.1196036E0,4.308319E0,1.6619606E0,0E0,0E0,5.3896484E0,0E0,0E0,0E0,0E0,0E0,0E0,0E0,0E0,0E0,0E0,0E0],"parents":[2147483647,0,0,1,1,2,2,3,3,4,4,5,5,7,7,8,8,9,9,10,10,11,11,12,12,13,13,14,14,15,15,16,16,17,17,21,21,22,22,23,23,24,24,25,25,26,26,27,27,28,28,29,29,30,30,31,31,33,33,34,34,35,35,39,39,40,40,41,41,42,42,43,43,45,45,46,46,48,48,49,49,50,50,51,51,52,52,54,54,61,61,63,63,64,64,66,66,67,67,68,68,72,72,73,73,74,74,77,77,85,85,92,92,97,97,103,103,104,104,105,105,108,108,115,115,116,116,117,117,118,118,121,121],"right_children":[2,4,6,8,10,12,-1,14,16,18,20,22,24,26,28,30,32,34,-1,-1,-1,36,38,40,42,44,46,48,50,52,54,56,-1,58,60,62,-1,-1,-1,64,66,68,70,72,-1,74,76,-1,78,80,82,84,86,-1,88,-1,-1,-1,-1,-1,-1,90,-1,92,94,-1,96,98,100,-1,-1,-1,102,104,106,-1,-1,108,-1,-1,-1,-1,-1,-1,-1,110,-1,-1,-1,-1,-1,-1,112,-1,-1,-1,-1,114,-1,-1,-1,-1,-1,116,118,120,-1,-1,122,-1,-1,-1,-1,-1,-1,124,126,128,130,-1,-1,132,-1,-1,-1,-1,-1,-1,-1,-1,-1,-1,-1],"split_conditions":[4.0600004E0,1.05000004E-1,1.18E0,5.5E-2,1.4749999E0,1.05E0,-7.452538E-2,1.395E0,5.525E0,1.6499999E-1,1.55E-1,2.45E-1,5.1949997E0,9.45E-1,2.5E0,2.15E-1,5.7E-1,-8.485001E0,8.464497E-2,-8.305497E-2,7.055605E-2,1.2E1,4.635E0,3.85E1,4.4999998E-2,1.85E1,3.35E-1,-3.0349998E0,2.8500003E-1,-6.035E0,3.6100001E0,2.5E0,5.359289E-2,2.15E-1,-1.78E0,5E-3,4.1864436E-2,7.1067787E-3,6.268826E-2,7.65E0,5.59E0,6.35E-1,4.18E0,-4.1E-1,6.473949E-2,5E-1,-2.91E0,5.673937E-2,6.2E1,2E1,-7E-2,-4E-1,1.495E0,8.835215E-2,5.05E0,-7.073044E-2,1.2315419E-2,-4.0944364E-2,4.3668717E-2,2.4678761E-2,7.841383E-2,-4.85E-1,3.0927349E-2,4.33E0,-7.55E-1,8.0071956E-2,8.15E1,7.5E0,-2.4000001E-1,-1.17157325E-2,5.8278948E-2,5.3946614E-2,-8.2E-1,2.4999999E-2,2.775E0,7.668553E-2,-1.0098852E-2,-6.15E-1,4.5671947E-2,9.612548E-3,6.79823E-2,3.672889E-2,-3.773194E-2,9.184664E-3,-4.899466E-2,6.0000002E-2,7.286647E-3,7.1776085E-2,-6.351254E-4,-1.4636663E-2,-7.093807E-2,6.843921E-3,-5.05E-1,-4.4023063E-2,9.875173E-3,-8.6324895E-3,5.067379E-2,1.25E-1,8.836766E-2,6.0633034E-2,-1.05518205E-2,1.9344505E-2,-6.573059E-2,6.5E-2,5.1E1,9.405001E0,-2.8228972E-2,4.0403362E-2,3.5E-2,6.6000365E-2,7.337702E-3,1.1037381E-2,6.532291E-2,-8.46354E-3,6.90349E-2,1.44E2,-3.315E0,-2.165E0,-3.56E0,-8.98231E-2,-2.9188668E-2,5E-1,2.1364335E-2,-7.1746E-2,-1.24324225E-2,-7.400875E-3,4.7072157E-2,-1.0112749E-2,3.7475932E-2,-7.0175074E-2,-6.7295963E-3,-5.6266993E-2,-7.286043E-3],"split_indices":[4,39,2,42,2,5,0,4,0,39,40,15,4,8,33,42,42,4,0,0,0,33,8,20,40,20,40,5,12,4,0,33,0,12,5,39,0,0,0,5,8,12,8,15,0,17,4,0,37,20,15,14,0,0,8,0,0,0,0,0,0,14,0,8,6,0,20,20,14,0,0,0,5,39,3,0,0,13,0,0,0,0,0,0,0,13,0,0,0,0,0,0,14,0,0,0,0,15,0,0,0,0,0,40,20,5,0,0,39,0,0,0,0,0,0,37,4,6,4,0,0,31,0,0,0,0,0,0,0,0,0,0,0],"split_type":[0,0,0,0,0,0,0,0,0,0,0,0,0,0,0,0,0,0,0,0,0,0,0,0,0,0,0,0,0,0,0,0,0,0,0,0,0,0,0,0,0,0,0,0,0,0,0,0,0,0,0,0,0,0,0,0,0,0,0,0,0,0,0,0,0,0,0,0,0,0,0,0,0,0,0,0,0,0,0,0,0,0,0,0,0,0,0,0,0,0,0,0,0,0,0,0,0,0,0,0,0,0,0,0,0,0,0,0,0,0,0,0,0,0,0,0,0,0,0,0,0,0,0,0,0,0,0,0,0,0,0,0,0],"sum_hessian":[1.0579888E3,8.2277094E2,2.3521782E2,7.3539386E2,8.737704E1,2.307593E2,4.4585257E0,6.730496E2,6.2344246E1,7.64306E1,1.0946432E1,1.1926415E1,2.1883289E2,6.179091E2,5.5140533E1,5.5121796E1,7.222448E0,9.722612E0,6.670799E1,8.202956E0,2.743476E0,8.200133E0,3.7262814E0,2.2077238E1,1.9675565E2,8.720061E0,6.09189E2,4.6205032E1,8.935501E0,1.2444845E1,4.2676952E1,5.977572E0,1.2448757E0,3.2438245E0,6.4787874E0,6.4602203E0,1.7399135E0,1.7410849E0,1.9851966E0,8.443014E0,1.3634225E1,1.9377263E2,2.9830139E0,4.73946E0,3.9806015E0,6.044477E2,4.7413626E0,2.2355065E0,4.396953E1,5.954852E0,2.9806488E0,3.7401009E0,8.704744E0,3.7452457E1,5.2244964E0,4.7318783E0,1.2456938E0,1.4978081E0,1.7460163E0,1.7461983E0,4.7325892E0,5.217413E0,1.2428075E0,5.4616613E0,2.9813526E0,1.0656997E1,2.9772282E0,1.8906387E2,4.7087536E0,1.2470907E0,1.735923E0,1.2459629E0,3.4934974E0,4.4415536E2,1.6029231E2,3.4924314E0,1.2489312E0,4.1985775E1,1.9837503E0,1.2402849E0,4.714567E0,1.4891241E0,1.4915247E0,1.7448041E0,1.9952967E0,6.9602695E0,1.7444743E0,3.2326195E0,1.991877E0,1.9868568E0,3.230556E0,1.7403146E0,3.7213466E0,1.7406915E0,1.240661E0,1.7379302E0,1.2392979E0,6.456791E0,1.8260709E2,3.4684308E0,1.2403226E0,1.4966009E0,1.9968964E0,4.2020642E2,2.3948927E1,1.5905345E2,1.2388572E0,1.4943508E0,4.0491425E1,5.7185597E0,1.2417097E0,1.2423604E0,2.4789863E0,1.7415254E0,4.7152658E0,4.1397107E2,6.2353644E0,1.9460316E1,4.4886127E0,1.57811E2,1.2424492E0,3.8248158E1,2.2432668E0,4.0327765E2,1.0693433E1,4.489892E0,1.7454724E0,6.735719E0,1.2724595E1,2.7436826E0,1.7449299E0,3.1043962E1,7.2041974E0],"tree_param":{"num_deleted":"0","num_feature":"43","num_nodes":"133","size_leaf_vector":"0"}},{"base_weights":[-2.9118145E-1,-9.793232E-1,1.6114581E0,-1.2631238E0,1.4681772E0,1.6612675E0,2.2148792E-1,-6.4600533E-1,-1.3714432E0,1.6737915E0,2.1681713E-1,4.1184887E-1,1.6883427E0,-3.9086106E-1,1.3558391E0,2.7469128E-1,-1.7037066E0,-1.4106647E0,2.6531085E-1,-1.3398709E0,1.4337428E0,8.4727204E-1,-7.0974225E-1,1.3408909E0,1.7433987E0,2.6740274E-1,-1.1609781E0,-8.062684E-2,1.6085774E0,-5.377834E-1,-1.741826E0,-1.4277134E0,9.100961E-1,1.2526494E0,-9.818207E-1,1.2458227E-1,1.3081846E0,1.5581046E0,6.024494E-1,-1.0043567E0,9.5813996E-1,4.753332E-1,-6.5722305E-1,1.8368285E0,1.8997391E-3,-1.4838393E0,-7.78183E-1,1.3593036E0,-1.9237971E-1,1.5887331E0,4.7654143E-1,-1.4815371E0,7.2101015E-1,1.0931222E0,-4.9410897E-1,2.1544927E-1,1.2404121E0,8.767209E-1,-3.24134E-1,1.283086E0,-9.5608324E-1,2.2565117E-1,-1.5017812E0,-1.03581935E-1,-1.5921049E0,1.052694E0,-1.6810578E-1,7.414937E-2,1.497091E0,-1.0971624E0,1.7945486E-1,1.1710426E0,-1.535751E-1,-7.3382443E-1,5.0188637E-1,-1.0939734E0,6.4166754E-1,-7.258417E-1,9.4265336E-1,-1.516352E0,-9.001179E-3,6.778064E-1,-8.6323005E-1,-1.6737164E0,-7.561954E-1,1.2981266E0,2.3459497E-1,7.423543E-1,-8.491982E-1,-1.1259022E0,-2.3157861E-2,-2.0105602E-1,9.8040676E-1,-1.2856448E0,2.382032E-1,1.2275412E0,1.7482246E-1,-1.5302773E0,-4.1190997E-1,7.21089E-1,-1.1355762E0,1.0043031E0,-4.610355E-1,-1.1537254E0,3.3794156E-1,-1.0589409E0,-8.083476E-2,1.4102415E0,2.323662E-1,-1.4512066E0,-3.1233388E-1,-1.5524397E0,-8.6273205E-1,8.814424E-1,-1.1026635E0,1.100859E0,-1.0824727E-1,-7.225189E-2,1.329341E0,1.7567095E-1,-8.4890133E-1,-1.3458209E0,2.3252015E-1,6.960978E-1,-1.715009E-1],"categories":[],"categories_nodes":[],"categories_segments":[],"categories_sizes":[],"default_left":[1,1,1,1,1,1,1,1,1,0,1,1,1,1,0,1,1,1,1,0,0,1,0,1,0,1,0,1,1,0,0,1,1,1,1,0,0,0,1,0,1,1,1,0,0,1,1,0,0,0,1,0,0,1,1,0,0,1,1,0,1,1,1,1,1,0,0,0,0,0,0,1,1,1,1,1,0,0,1,1,1,1,1,0,1,1,0,0,0,0,0,0,0,1,0,0,0,1,1,1,0,1,1,1,1,0,0,0,0,0,0,0,0,0,0,0,0,0,0,0,0,0,0,0,0],"id":3,"left_children":[1,3,5,7,9,11,13,15,17,-1,19,21,23,25,-1,27,29,31,33,-1,-1,35,-1,37,-1,39,-1,41,43,-1,-1,45,47,49,51,-1,-1,-1,53,-1,55,57,59,-1,-1,61,63,-1,-1,-1,65,-1,-1,67,69,-1,-1,71,73,-1,75,77,79,81,83,-1,-1,-1,-1,-1,-1,85,87,89,91,93,-1,-1,95,97,99,101,103,-1,105,107,-1,-1,-1,-1,-1,-1,-1,109,-1,-1,-1,111,113,115,-1,117,119,121,123,-1,-1,-1,-1,-1,-1,-1,-1,-1,-1,-1,-1,-1,-1,-1,-1,-1,-1,-1,-1],"loss_changes":[1.3560387E3,5.2999457E2,1.8682007E1,4.4694946E1,2.008397E1,8.285461E0,7.943507E0,1.01459366E2,3.7555054E1,0E0,2.5342398E1,3.9972813E0,2.626831E0,4.2176633E0,0E0,2.6815714E1,1.2144318E0,2.3684937E1,1.8955912E1,0E0,0E0,1.6573596E0,0E0,5.450058E0,0E0,5.3267193E0,0E0,1.4870446E1,4.357359E0,0E0,0E0,1.9334839E1,2.6073065E0,1.453269E0,6.9580126E0,0E0,0E0,0E0,6.2884007E0,0E0,5.150051E-1,7.8897166E0,1.4397491E1,0E0,0E0,1.617273E1,2.553499E1,0E0,0E0,0E0,1.6586103E0,0E0,0E0,3.0553331E0,1.8181666E0,0E0,0E0,5.0464487E0,3.2962954E0,0E0,5.164295E0,4.935335E0,1.1101196E1,1.6411758E1,1.7671204E-1,0E0,0E0,0E0,0E0,0E0,0E0,1.1948147E0,3.403774E0,1.6986177E0,1.3617733E0,5.1615334E0,0E0,0E0,6.578741E-1,7.15271E0,5.7091074E0,5.5584073E0,5.260824E0,0E0,6.7189217E-1,9.7146416E-1,0E0,0E0,0E0,0E0,0E0,0E0,0E0,2.2506485E0,0E0,0E0,0E0,6.048828E0,7.8237214E0,1.4480462E0,0E0,3.9328966E0,1.0724286E0,3.3666143E0,7.5652874E-1,0E0,0E0,0E0,0E0,0E0,0E0,0E0,0E0,0E0,0E0,0E0,0E0,0E0,0E0,0E0,0E0,0E0,0E0,0E0,0E0],"parents":[2147483647,0,0,1,1,2,2,3,3,4,4,5,5,6,6,7,7,8,8,10,10,11,11,12,12,13,13,15,15,16,16,17,17,18,18,21,21,23,23,25,25,27,27,28,28,31,31,32,32,33,33,34,34,38,38,40,40,41,41,42,42,45,45,46,46,50,50,53,53,54,54,57,57,58,58,60,60,61,61,62,62,63,63,64,64,71,71,72,72,73,73,74,74,75,75,78,78,79,79,80,80,81,81,82,82,84,84,85,85,93,93,97,97,98,98,99,99,101,101,102,102,103,103,104,104],"right_children":[2,4,6,8,10,12,14,16,18,-1,20,22,24,26,-1,28,30,32,34,-1,-1,36,-1,38,-1,40,-1,42,44,-1,-1,46,48,50,52,-1,-1,-1,54,-1,56,58,60,-1,-1,62,64,-1,-1,-1,66,-1,-1,68,70,-1,-1,72,74,-1,76,78,80,82,84,-1,-1,-1,-1,-1,-1,86,88,90,92,94,-1,-1,96,98,100,102,104,-1,106,108,-1,-1,-1,-1,-1,-1,-1,110,-1,-1,-1,112,114,116,-1,118,120,122,124,-1,-1,-1,-1,-1,-1,-1,-1,-1,-1,-1,-1,-1,-1,-1,-1,-1,-1,-1,-1],"split_conditions":[3.5E-2,1.3499999E-1,3.49E0,5.5E0,5E-1,5.5E-2,6.05E-1,5.545E0,1.3499999E-1,8.368958E-2,2E-1,3.5000002E-1,2.25E-1,-4.7799997E0,6.779196E-2,5E-1,-5.2E-1,1.045E2,5E-1,-6.699355E-2,7.168714E-2,1.55E-1,-3.548711E-2,1.35E1,8.716994E-2,8.000001E-2,-5.8048904E-2,4.95E0,2.18E0,-2.688917E-2,-8.7091304E-2,2.4999999E-2,6.815E2,8.9E1,9.9E-1,6.2291133E-3,6.5409236E-2,7.790523E-2,-3.1E-1,-5.0217837E-2,2.5E-1,-2.05E-1,-9.5E-1,9.184142E-2,9.498696E-5,9.45E-1,5E-1,6.796518E-2,-9.6189855E-3,7.943665E-2,4.5E-2,-7.407685E-2,3.605051E-2,4.25E1,2.75E1,1.0772464E-2,6.2020607E-2,1.55E-1,1.85E-1,6.41543E-2,1.5E-2,1.35E-1,1.35E1,1.45E1,1.735E0,5.2634697E-2,-8.40529E-3,3.7074685E-3,7.485455E-2,-5.485812E-2,8.9727435E-3,1.59E0,-1E-2,4.7E-1,-7.24E0,7.4999996E-2,3.2083377E-2,-3.6292087E-2,5.85E-1,8.18E0,1.05E1,8.3E1,4.8950005E0,-8.368582E-2,-6.35E-1,2.85E-1,1.1729749E-2,3.7117716E-2,-4.2459913E-2,-5.6295108E-2,-1.1578931E-3,-1.0052801E-2,4.902034E-2,3.85E-1,1.191016E-2,6.137706E-2,8.741124E-3,3.5E-2,-1.5E-2,6.6549997E0,-5.6778815E-2,-3.1E-1,2.0500001E-1,2.975E0,7E1,-5.2947044E-2,-4.0417383E-3,7.051208E-2,1.1618311E-2,-7.256033E-2,-1.5616694E-2,-7.762199E-2,-4.3136604E-2,4.407212E-2,-5.5133175E-2,5.5042952E-2,-5.412364E-3,-3.6125947E-3,6.6467054E-2,8.783548E-3,-4.2445067E-2,-6.729104E-2,1.1626008E-2,3.480489E-2,-8.5750455E-3],"split_indices":[41,39,0,21,17,41,41,0,40,0,40,12,41,4,0,19,13,33,17,0,0,15,0,21,0,5,0,8,0,0,0,39,33,21,6,0,0,0,14,0,7,14,0,0,0,8,17,0,0,0,15,0,0,20,21,0,0,12,0,0,41,12,30,20,3,0,0,0,0,0,0,6,15,12,4,4,0,0,12,6,21,21,6,0,7,15,0,0,0,0,0,0,0,12,0,0,0,40,13,8,0,13,5,7,21,0,0,0,0,0,0,0,0,0,0,0,0,0,0,0,0,0,0,0,0],"split_type":[0,0,0,0,0,0,0,0,0,0,0,0,0,0,0,0,0,0,0,0,0,0,0,0,0,0,0,0,0,0,0,0,0,0,0,0,0,0,0,0,0,0,0,0,0,0,0,0,0,0,0,0,0,0,0,0,0,0,0,0,0,0,0,0,0,0,0,0,0,0,0,0,0,0,0,0,0,0,0,0,0,0,0,0,0,0,0,0,0,0,0,0,0,0,0,0,0,0,0,0,0,0,0,0,0,0,0,0,0,0,0,0,0,0,0,0,0,0,0,0,0,0,0,0,0],"sum_hessian":[1.0335034E3,7.5934924E2,2.741542E2,6.8088135E2,7.846786E1,2.6448135E2,9.67285E0,1.0270619E2,5.781752E2,6.710421E1,1.13636465E1,5.953661E0,2.585277E2,6.707447E0,2.9654026E0,5.5305096E1,4.7401096E1,5.647795E2,1.3395714E1,4.941484E0,6.4221625E0,4.4648867E0,1.4887741E0,3.8830135E1,2.1969756E2,3.9682927E0,2.739154E0,4.4413784E1,1.0891309E1,1.9790034E0,4.5422092E1,5.610428E2,3.7366977E0,7.4741206E0,5.921593E0,2.233366E0,2.2315207E0,2.9146624E1,9.683513E0,1.236908E0,2.7313848E0,2.2700933E1,2.1712852E1,9.411085E0,1.4802231E0,5.1523676E2,4.5806026E1,2.4894197E0,1.2472779E0,4.484928E0,2.9891922E0,4.6785674E0,1.2430261E0,6.6921396E0,2.991373E0,1.2378157E0,1.493569E0,1.5048778E1,7.652156E0,2.458448E0,1.9254404E1,5.231278E0,5.1000546E2,2.5663046E1,2.014298E1,1.244207E0,1.7449853E0,2.235885E0,4.456255E0,1.2464834E0,1.7448896E0,1.1598781E1,3.4499972E0,5.189752E0,2.4624038E0,1.8014969E1,1.2394353E0,2.2427385E0,2.9885397E0,5.0505988E2,4.945589E0,1.270361E1,1.2959435E1,1.7438185E1,2.7047958E0,9.87274E0,1.726041E0,1.4785354E0,1.9714618E0,2.968002E0,2.2217498E0,1.2321799E0,1.2302239E0,1.577956E1,2.235409E0,1.7430893E0,1.2454503E0,4.9839044E2,6.6694427E0,3.2192466E0,1.7263423E0,9.964892E0,2.7387176E0,1.0467452E1,2.4919837E0,1.4754354E0,1.2293605E0,8.6405525E0,1.2321863E0,1.3066011E1,2.713549E0,4.8109253E2,1.7297897E1,2.2258148E0,4.443628E0,1.983544E0,1.2357028E0,2.4912753E0,7.473617E0,1.2438848E0,1.4948328E0,9.2191E0,1.2483519E0,1.2481196E0,1.2438639E0],"tree_param":{"num_deleted":"0","num_feature":"43","num_nodes":"125","size_leaf_vector":"0"}},{"base_weights":[-2.8953397E-1,-9.311482E-1,1.5646509E0,-1.2086734E0,1.2693001E0,1.6090349E0,-5.419194E-1,-1.2833663E0,1.1688292E0,1.5841335E0,-4.226579E-1,1.1052628E0,1.6585088E0,-1.2529347E0,1.0364591E0,-1.3357694E0,-3.4942317E-1,1.5078144E0,-8.181613E-1,4.9486655E-1,1.5957894E0,-1.3984125E0,1.4284388E0,1.3700421E0,3.8686834E-2,1.6623509E0,5.114383E-1,-1.3937739E0,-5.479106E-1,7.9659E-1,-1.237903E0,-1.6755687E-1,-1.0765816E0,1.6073078E0,5.1640195E-1,1.5242091E0,-5.9249496E-1,-1.0716126E0,5.3227973E-1,-1.290609E0,-1.688848E0,-1.1976377E0,-1.7244887E-1,1.6889794E0,-1.345309E-1,-1.4768592E0,5.107648E-1,-1.969946E-1,8.2834005E-1,-1.3414723E0,-2.9930475E-1,-1.35568E0,-3.130155E-1,7.626969E-2,-1.413404E0,-6.9718474E-1,4.540937E-1,-1.6096116E0,-6.895606E-1,1.0863994E0,1.7431596E-1,-3.197547E-1,-1.3736601E0,1.390424E-1,-1.2434607E0,-1.5368401E0,-9.4844885E-2,2.5538263E-1,-7.005561E-1,9.43248E-1,-7.3767847E-1,-1.1056397E0,-2.0589246E-1,1.1012287E0,-5.61735E-2,3.38591E-1,-1.1922581E0,-9.5881873E-1,5.0516343E-1,-1.0591998E0,-1.4364666E0,-4.1016546E-1,6.276156E-1,-1.5539466E0,-1.69497E-1,2.4215972E-1,1.3617289E0,-1.3201087E0,6.3935715E-1,2.950583E-1,-6.1414987E-1,-6.1721855E-1,4.7202423E-1,-1.218208E0,1.2393146E-1,9.36826E-1,-1.6432539E-1,-1.0927142E-1,-1.6465151E0,-1.4587687E0,-5.417871E-1,6.298575E-1,-6.8624914E-1,-9.851122E-3,1.2676498E0,8.4607726E-1,-1.4839701E-1,1.5606279E0,1.832141E-1,-1.579731E0,-6.204897E-2,-2.8308338E-1,1.1498221E0],"categories":[],"categories_nodes":[],"categories_segments":[],"categories_sizes":[],"default_left":[1,1,1,1,1,1,1,1,1,1,1,1,1,0,0,1,1,0,1,0,1,0,0,1,1,0,0,1,1,1,1,0,0,0,0,0,0,0,1,1,0,1,1,0,1,1,0,0,1,1,1,1,1,1,0,1,1,0,1,0,0,1,1,1,1,0,0,0,0,1,1,0,1,0,1,0,0,1,1,1,1,1,1,0,0,1,1,1,1,0,0,0,0,0,0,0,0,0,0,0,0,0,0,0,0,0,0,0,0,0,0,0,0],"id":4,"left_children":[1,3,5,7,9,11,13,15,17,19,21,23,25,-1,-1,27,29,-1,31,-1,33,-1,-1,35,37,-1,-1,39,41,43,45,-1,-1,-1,-1,-1,-1,-1,47,49,-1,51,53,-1,55,57,-1,-1,59,61,63,65,67,69,-1,71,73,-1,75,-1,-1,77,79,81,83,-1,-1,-1,-1,85,87,-1,89,-1,91,-1,-1,93,95,97,99,101,103,-1,-1,105,107,109,111,-1,-1,-1,-1,-1,-1,-1,-1,-1,-1,-1,-1,-1,-1,-1,-1,-1,-1,-1,-1,-1,-1,-1,-1],"loss_changes":[1.2183859E3,4.659995E2,2.5493774E1,1.2152838E2,4.630429E1,4.6011353E0,8.236337E0,3.1628662E1,1.5453203E1,1.3002014E-1,2.7699144E1,7.3131943E0,1.7700195E-1,0E0,0E0,2.7597046E1,3.7840652E1,0E0,4.4588542E-1,0E0,5.5480957E-2,0E0,0E0,7.216591E0,3.9772916E0,0E0,0E0,1.5396973E1,1.0577081E1,1.3867069E1,9.437412E0,0E0,0E0,0E0,0E0,0E0,0E0,0E0,1.2365838E0,2.138324E1,0E0,1.8155327E0,9.11524E0,0E0,3.2839167E0,8.276825E-1,0E0,0E0,4.3985343E-1,1.30668335E1,9.432711E0,2.890421E0,1.0002401E0,1.8521004E1,0E0,7.707453E-1,1.7077323E0,0E0,2.6904469E0,0E0,0E0,7.7837696E0,6.3358154E0,4.598773E0,2.1356535E0,0E0,0E0,0E0,0E0,3.3876047E0,1.1743148E1,0E0,8.9444864E-1,0E0,1.399166E0,0E0,0E0,2.439114E0,2.0899591E0,3.8895103E1,5.7702637E0,2.7929733E0,3.6671548E0,0E0,0E0,1.5294867E0,1.5232096E0,3.1278267E0,2.5447388E0,0E0,0E0,0E0,0E0,0E0,0E0,0E0,0E0,0E0,0E0,0E0,0E0,0E0,0E0,0E0,0E0,0E0,0E0,0E0,0E0,0E0,0E0,0E0,0E0],"parents":[2147483647,0,0,1,1,2,2,3,3,4,4,5,5,6,6,7,7,8,8,9,9,10,10,11,11,12,12,15,15,16,16,18,18,20,20,23,23,24,24,27,27,28,28,29,29,30,30,38,38,39,39,41,41,42,42,44,44,45,45,48,48,49,49,50,50,51,51,52,52,53,53,55,55,56,56,58,58,61,61,62,62,63,63,64,64,69,69,70,70,72,72,74,74,77,77,78,78,79,79,80,80,81,81,82,82,85,85,86,86,87,87,88,88],"right_children":[2,4,6,8,10,12,14,16,18,20,22,24,26,-1,-1,28,30,-1,32,-1,34,-1,-1,36,38,-1,-1,40,42,44,46,-1,-1,-1,-1,-1,-1,-1,48,50,-1,52,54,-1,56,58,-1,-1,60,62,64,66,68,70,-1,72,74,-1,76,-1,-1,78,80,82,84,-1,-1,-1,-1,86,88,-1,90,-1,92,-1,-1,94,96,98,100,102,104,-1,-1,106,108,110,112,-1,-1,-1,-1,-1,-1,-1,-1,-1,-1,-1,-1,-1,-1,-1,-1,-1,-1,-1,-1,-1,-1,-1,-1],"split_conditions":[5.5E-2,1.05000004E-1,6.045E0,2.25E-1,5E-1,1.55E-1,7.5E-1,3.5E-2,5.445E0,-6.455E0,3.65E-1,1.6E1,6.5E-2,-6.264674E-2,5.1822957E-2,5E-3,5E-1,7.539072E-2,-4.9999997E-2,2.4743328E-2,1.2045E1,-6.992062E-2,7.142194E-2,3.4850001E0,2.45E1,8.3117545E-2,2.5571916E-2,5E-1,-6.86E0,7.5E0,4.45E-1,-8.377844E-3,-5.382908E-2,8.036539E-2,2.5820097E-2,7.621046E-2,-2.9624749E-2,-5.358063E-2,5.4E1,2.4999999E-2,-8.44424E-2,1.5E-2,2.585E0,8.444897E-2,1.75E-1,1.575E0,2.553824E-2,-9.84973E-3,-6.9500005E-1,-5.85E-1,6.5E-2,1.5E0,-1.14E1,1.05E1,-7.06702E-2,-1.565E0,-5.65E0,-8.048058E-2,2.75E0,5.4319974E-2,8.715798E-3,3.1E1,5.5E0,-2.35E-1,-3.58E0,-7.6842E-2,-4.7422443E-3,1.2769132E-2,-3.5027806E-2,1.5E-2,7.05E1,-5.5281986E-2,1.54E0,5.5061437E-2,-3E-1,1.692955E-2,-5.9612907E-2,-6.05E-1,2.49E0,5E-1,7.5E0,1.05E1,2.315E0,-7.769733E-2,-8.47485E-3,-3.495E0,4.15E0,4.2E1,3.6E1,1.4752916E-2,-3.0707493E-2,-3.0860929E-2,2.3601212E-2,-6.09104E-2,6.196573E-3,4.68413E-2,-8.216269E-3,-5.4635713E-3,-8.232576E-2,-7.2938435E-2,-2.7089356E-2,3.1492874E-2,-3.4312457E-2,-4.9255614E-4,6.338249E-2,4.2303864E-2,-7.4198507E-3,7.80314E-2,9.160705E-3,-7.898655E-2,-3.1024485E-3,-1.4154169E-2,5.7491105E-2],"split_indices":[41,39,0,42,17,41,41,40,0,6,40,21,40,0,0,41,17,0,15,0,6,0,0,0,21,0,0,17,4,20,40,0,0,0,0,0,0,0,20,39,0,42,0,0,15,6,0,0,6,13,13,33,4,21,0,6,4,0,6,0,0,20,21,13,4,0,0,0,0,41,20,0,6,0,13,0,0,13,6,16,6,21,6,0,0,4,4,37,21,0,0,0,0,0,0,0,0,0,0,0,0,0,0,0,0,0,0,0,0,0,0,0,0],"split_type":[0,0,0,0,0,0,0,0,0,0,0,0,0,0,0,0,0,0,0,0,0,0,0,0,0,0,0,0,0,0,0,0,0,0,0,0,0,0,0,0,0,0,0,0,0,0,0,0,0,0,0,0,0,0,0,0,0,0,0,0,0,0,0,0,0,0,0,0,0,0,0,0,0,0,0,0,0,0,0,0,0,0,0,0,0,0,0,0,0,0,0,0,0,0,0,0,0,0,0,0,0,0,0,0,0,0,0,0,0,0,0,0,0],"sum_hessian":[1.02191187E3,7.59571E2,2.6234088E2,6.749017E2,8.466932E1,2.571589E2,5.1819673E0,6.547906E2,2.0111055E1,7.143979E1,1.32295265E1,2.5083595E1,2.320753E2,3.7147605E0,1.4672068E0,6.1959515E2,3.5195454E1,1.7386103E1,2.7249522E0,1.2164508E0,7.0223335E1,8.82318E0,4.4063463E0,1.9867043E1,5.216552E0,2.3085286E2,1.2224526E0,5.7639056E2,4.3204624E1,1.541531E1,1.9780142E1,1.2432667E0,1.4816855E0,6.8997955E1,1.2253871E0,1.8627136E1,1.239907E0,1.244992E0,3.9715598E0,4.310568E2,1.4533376E2,1.5021139E1,2.8183483E1,7.4557614E0,7.9595485E0,1.7538883E1,2.241258E0,1.2433861E0,2.7281737E0,4.0968295E2,2.1373837E1,1.22925205E1,2.7286189E0,2.4259758E1,3.9237254E0,3.9752555E0,3.984293E0,1.4114462E1,3.4244223E0,1.4822283E0,1.2459453E0,1.284626E1,3.968367E2,1.5179241E1,6.1945953E0,1.05567875E1,1.7357333E0,1.2444402E0,1.4841788E0,1.1670282E1,1.2589476E1,1.4878232E0,2.4874322E0,1.2459735E0,2.7383196E0,1.2317052E0,2.192717E0,7.1470895E0,5.69917E0,6.903851E1,3.277982E2,7.221733E0,7.957508E0,4.458658E0,1.7359374E0,4.95229E0,6.717992E0,8.876442E0,3.7130342E0,1.2414227E0,1.2460095E0,1.246144E0,1.4921756E0,5.6648774E0,1.4822122E0,3.2222576E0,2.4769125E0,2.6829815E1,4.2208694E1,3.1921057E2,8.5876E0,1.2461218E0,5.9756117E0,4.480044E0,3.477464E0,1.4868456E0,3.4654443E0,5.4704986E0,1.2474935E0,7.146044E0,1.730398E0,1.4814346E0,2.2315998E0],"tree_param":{"num_deleted":"0","num_feature":"43","num_nodes":"113","size_leaf_vector":"0"}},{"base_weights":[-2.7412435E-1,-8.9822036E-1,1.483436E0,-9.762844E-1,8.810647E-1,1.5481429E0,8.9157514E-2,-7.899705E-1,-1.6095995E0,1.313215E0,-5.9614223E-1,1.1290064E0,1.6072729E0,-1.2003973E0,1.0895154E0,-8.544147E-1,1.0359106E0,-1.6149462E0,-4.8773733E-1,1.4370853E0,7.6437765E-1,-1.092656E0,6.128233E-1,1.5377806E0,3.7793237E-1,5.2800797E-2,1.3240623E0,-9.3274546E-1,3.516933E-1,1.287658E0,-6.5099895E-1,1.5094029E0,5.873055E-1,1.007112E0,2.4905626E-2,-1.2922873E0,-3.6460334E-1,1.5744479E0,4.9025446E-1,9.341276E-1,-7.1013427E-1,-9.8406386E-1,7.8288907E-1,1.1639937E0,-3.0003613E-1,1.5352222E0,7.634778E-1,1.3047142E0,1.4750116E-1,-1.2261393E0,3.5040468E-1,-1.0104626E0,8.5883623E-1,-1.631005E-1,1.1649704E0,1.4303675E0,4.538894E-1,-5.1015836E-1,1.0856804E0,1.0108919E0,-2.818814E-1,7.1811587E-1,-5.3522277E-1,-1.0459293E0,1.7702335E-1,-6.140844E-1,1.238327E0,2.8017578E-1,-9.17976E-1,1.2324233E0,3.338877E-1,-1.2988096E-1,7.4087435E-1,8.742206E-2,-9.314583E-1,1.9185127E-1,1.3318354E0,-1.1464369E0,-7.6791596E-1,1.0359282E0,-1.833037E-1,-5.5958045E-1,8.1815755E-1,2.64523E-1,9.895723E-1,-3.3981284E-1,6.5160275E-1,-1.1937486E0,4.1273335E-1,-1.1948034E0,-4.9575773E-1,-8.137597E-1,1.13694E0,1.3098013E0,1.467701E-1,5.096663E-1,-6.826808E-1,2.7815986E-1,-5.8870536E-1,8.0572367E-1,1.7447406E-1,-1.3103441E0,-3.5309106E-1],"categories":[],"categories_nodes":[],"categories_segments":[],"categories_sizes":[],"default_left":[1,1,1,1,1,1,1,1,1,1,1,1,0,0,1,1,1,0,0,1,1,1,0,1,1,0,0,1,1,1,0,0,0,0,0,0,0,0,0,1,1,1,1,1,1,0,1,0,1,0,0,1,1,1,1,0,1,1,0,1,0,0,0,1,1,0,0,1,0,0,0,0,1,1,1,0,0,1,1,1,1,0,0,0,0,1,1,1,0,0,0,0,0,0,0,0,0,0,0,0,0,0,0],"id":5,"left_children":[1,3,5,7,9,11,13,15,17,19,21,23,-1,-1,25,27,29,-1,-1,31,33,35,-1,37,39,-1,-1,41,43,45,-1,-1,-1,-1,-1,-1,-1,-1,-1,47,49,51,53,55,57,-1,59,-1,61,-1,-1,63,65,67,69,-1,71,73,-1,75,-1,-1,-1,77,79,-1,-1,81,-1,-1,-1,-1,83,85,87,-1,-1,89,91,93,95,-1,-1,-1,-1,97,99,101,-1,-1,-1,-1,-1,-1,-1,-1,-1,-1,-1,-1,-1,-1,-1],"loss_changes":[1.1305195E3,1.0646594E2,2.423352E1,8.472699E1,2.1518164E1,4.581848E0,1.8132025E1,6.7381256E1,2.0031738E-1,6.3118744E-1,5.495387E0,1.0247368E1,0E0,0E0,1.8434191E0,5.1949554E1,9.211931E0,0E0,0E0,3.192978E-1,1.1992686E0,4.0934086E-1,0E0,9.286499E-2,8.988348E0,0E0,0E0,4.5967926E1,1.8374363E1,1.0979462E0,0E0,0E0,0E0,0E0,0E0,0E0,0E0,0E0,0E0,2.5871048E0,3.287008E0,2.5138855E1,5.7802887E0,2.2565193E0,6.2859325E0,0E0,2.250803E0,0E0,2.0131254E0,0E0,0E0,2.0918945E1,5.000704E0,2.039654E0,2.1298409E-1,0E0,1.0436924E0,4.5563645E0,0E0,1.417417E0,0E0,0E0,0E0,1.2480835E1,4.873159E0,0E0,0E0,2.3201475E0,0E0,0E0,0E0,0E0,2.0507336E-1,2.2133236E0,4.1984434E0,0E0,0E0,1.0396515E1,1.2277161E1,9.334173E-1,4.330969E0,0E0,0E0,0E0,0E0,9.881574E-1,1.4649999E-1,4.245329E-1,0E0,0E0,0E0,0E0,0E0,0E0,0E0,0E0,0E0,0E0,0E0,0E0,0E0,0E0,0E0],"parents":[2147483647,0,0,1,1,2,2,3,3,4,4,5,5,6,6,7,7,8,8,9,9,10,10,11,11,14,14,15,15,16,16,19,19,20,20,21,21,23,23,24,24,27,27,28,28,29,29,39,39,40,40,41,41,42,42,43,43,44,44,46,46,48,48,51,51,52,52,53,53,54,54,56,56,57,57,59,59,63,63,64,64,67,67,72,72,73,73,74,74,77,77,78,78,79,79,80,80,85,85,86,86,87,87],"right_children":[2,4,6,8,10,12,14,16,18,20,22,24,-1,-1,26,28,30,-1,-1,32,34,36,-1,38,40,-1,-1,42,44,46,-1,-1,-1,-1,-1,-1,-1,-1,-1,48,50,52,54,56,58,-1,60,-1,62,-1,-1,64,66,68,70,-1,72,74,-1,76,-1,-1,-1,78,80,-1,-1,82,-1,-1,-1,-1,84,86,88,-1,-1,90,92,94,96,-1,-1,-1,-1,98,100,102,-1,-1,-1,-1,-1,-1,-1,-1,-1,-1,-1,-1,-1,-1,-1],"split_conditions":[5.5E-2,1.4500001E-1,3.505E0,5E-1,3.52E0,2.05E-1,1.14999995E-1,2.15E-1,1.48E2,-1.285E0,3.75E-1,5E-1,8.0363646E-2,-6.0019862E-2,1.6E-1,5E-3,5.445E0,-8.0747314E-2,-2.4386866E-2,2.45E1,5E-1,1E-2,3.0641166E-2,2.4650002E0,-3.1E-1,2.64004E-3,6.620312E-2,1.65E1,7.5E0,1.92E0,-3.2549948E-2,7.547014E-2,2.9365275E-2,5.0355602E-2,1.2452813E-3,-6.461437E-2,-1.8230168E-2,7.8722395E-2,2.4512723E-2,4.25E-1,1.5E0,3.5E0,-7.7250004E0,5E-1,9.65E1,7.676111E-2,1.5E-2,6.523571E-2,1.4500001E-1,-6.1306965E-2,1.7520234E-2,4.95E1,-7E-2,-9.055E0,1.1E1,7.151838E-2,3.05E1,-7.2650003E0,5.4284018E-2,-1.7E-1,-1.409407E-2,3.5905793E-2,-2.6761139E-2,-1.905E0,7.5E0,-3.070422E-2,6.191635E-2,5.95E1,-4.5898803E-2,6.1621167E-2,1.6694386E-2,-6.4940485E-3,-5E-3,-9.84E0,5E-1,9.592564E-3,6.659177E-2,5E-3,1.25E1,-2.5E-1,-3.4E-1,-2.7979022E-2,4.090788E-2,1.3226151E-2,4.9478617E-2,-1.5605E1,4.5E-2,4.35E-1,2.0636668E-2,-5.9740167E-2,-2.4787886E-2,-4.0687986E-2,5.6847002E-2,6.549007E-2,7.3385052E-3,2.5483316E-2,-3.413404E-2,1.3907993E-2,-2.9435268E-2,4.0286183E-2,8.723703E-3,-6.551721E-2,-1.7654553E-2],"split_indices":[41,40,0,17,2,41,42,42,38,4,40,19,0,0,41,40,0,0,0,20,17,9,0,0,14,0,0,25,20,0,0,0,0,0,0,0,0,0,0,15,34,35,4,18,21,0,15,0,41,0,0,32,15,4,21,0,21,4,0,15,0,0,0,4,20,0,0,25,0,0,0,0,15,4,38,0,0,42,30,14,14,0,0,0,0,4,40,15,0,0,0,0,0,0,0,0,0,0,0,0,0,0,0],"split_type":[0,0,0,0,0,0,0,0,0,0,0,0,0,0,0,0,0,0,0,0,0,0,0,0,0,0,0,0,0,0,0,0,0,0,0,0,0,0,0,0,0,0,0,0,0,0,0,0,0,0,0,0,0,0,0,0,0,0,0,0,0,0,0,0,0,0,0,0,0,0,0,0,0,0,0,0,0,0,0,0,0,0,0,0,0,0,0,0,0,0,0,0,0,0,0,0,0,0,0,0,0,0,0],"sum_hessian":[1.0284475E3,7.5931104E2,2.691365E2,7.278297E2,3.1481358E1,2.5709467E2,1.204183E1,5.641196E2,1.6371002E2,2.444198E1,7.0393777E0,3.426988E1,2.2282478E2,5.1731668E0,6.8686633E0,5.4540186E2,1.8717815E1,1.6249603E2,1.2139852E0,1.8620903E1,5.821076E0,5.058211E0,1.9811665E0,2.1513597E1,1.2756282E1,1.4932975E0,5.3753657E0,5.1235364E2,3.30482E1,1.6493126E1,2.22469E0,1.6445168E1,2.1757367E0,4.1100144E0,1.7110614E0,3.3614998E0,1.6967113E0,2.0300009E1,1.2135893E0,8.534908E0,4.221374E0,4.9788718E2,1.4466479E1,1.4361879E1,1.868632E1,9.892301E0,6.600825E0,5.3539805E0,3.1809273E0,2.7346723E0,1.4867016E0,4.9130118E2,6.5859942E0,4.326842E0,1.0139637E1,9.706485E0,4.655394E0,1.6774565E1,1.9117553E0,5.3642044E0,1.2366205E0,1.7044901E0,1.4764372E0,4.771688E2,1.4132379E1,1.2225852E0,5.363409E0,3.1222477E0,1.2045941E0,8.931796E0,1.2078409E0,1.7147549E0,2.9406393E0,7.2638564E0,9.510708E0,1.9600279E0,3.4041762E0,3.481732E2,1.2899559E2,3.6225076E0,1.05098715E1,1.2035043E0,1.9187434E0,1.7165066E0,1.2241327E0,4.359923E0,2.9039338E0,8.051542E0,1.4591656E0,3.23305E2,2.4868212E1,1.2652338E2,2.472213E0,2.4077933E0,1.2147143E0,4.3931E0,6.1167717E0,1.2180498E0,3.141873E0,1.6743853E0,1.2295485E0,6.580186E0,1.4713565E0],"tree_param":{"num_deleted":"0","num_feature":"43","num_nodes":"103","size_leaf_vector":"0"}},{"base_weights":[-2.5064337E-1,-2.0678279E-3,-1.474164E0,-4.1658595E-1,5.9921646E-1,-1.5353754E0,5.9499687E-1,-5.3975E-1,1.3331704E0,8.442531E-1,-2.1280198E-1,-1.2144703E-1,-1.5449563E0,1.1846206E0,-6.444775E-1,-7.070098E-1,5.725899E-1,7.4066573E-1,1.516169E0,9.4071484E-1,-1.1567855E0,8.2691145E-1,-4.861362E-1,-1.5642797E0,-9.8440695E-1,-7.5664157E-1,8.9101297E-1,1.0165447E0,-1.0665068E-1,1.3080947E0,-8.499149E-2,1.4123104E0,7.814256E-1,-1.4822965E0,-1.4081325E-1,1.1426384E0,-1.0915413E0,-3.6088303E-2,-1.0243816E0,-1.5694206E0,-4.977067E-1,-1.06101304E-1,-1.2364467E0,9.6766764E-1,-7.947611E-1,1.3763894E0,1.9346292E-1,1.0736953E0,-2.1443546E-2,-3.2209536E-1,5.9198457E-1,-9.4765025E-1,8.1035197E-1,1.4536806E0,1.9217806E-1,6.044244E-1,1.3197407E0,-9.502397E-1,5.190845E-1,1.3125551E0,-1.436992E-2,-2.6632282E-1,1.0452436E0,-1.1518139E0,2.5257235E-2,-1.57464E-1,1.1692604E0,-8.581029E-1,8.0206186E-2,-4.6446884E-1,7.9986227E-1,8.127309E-1,1.3710893E0,-7.761865E-1,-4.1560527E-2,9.8612475E-1,-4.205547E-1,9.0188324E-1,2.1408434E-1,1.4169704E0,6.448105E-1,1.4595768E0,3.0622417E-1,-4.3467057E-1,1.0830873E0,4.969195E-1,1.249184E0,-1.4314457E-2,-1.2296739E0,9.152348E-1,-7.874794E-1,1.4971538E0,5.427864E-1,-9.008521E-1,5.8535236E-1,4.9698806E-1,-6.792235E-1,1.5762375E-1,-8.3085424E-1,1.3769732E-1,1.065863E0,3.2824695E-1,1.0940999E0,2.7435476E-1,1.4688145E0,2.181544E-1,-1.0026568E0,1.21993236E-1,-9.2025644E-1,1.1918173E0,2.9365975E-1,1.0252428E0,9.793159E-2,-3.640986E-2,1.3254552E0,1.477157E0,-2.714358E-1,-1.9163413E-1,1.1269662E0,2.9988316E-1,-6.9148916E-1,9.698603E-1,-2.0249458E-1,-1.3151503E0,-5.868469E-2,1.1979333E0,-5.730646E-1,-8.269936E-1,-1.5494173E0,8.3932096E-1,-5.051158E-1,1.9810453E-2,9.433689E-1,-9.907733E-1,6.772635E-1,-2.4222541E-1,7.458169E-1,-5.0480183E-2,1.2971804E0,-1.1639416E0,-2.75611E-1,-2.9679337E-1,6.6503435E-1,5.7394004E-1,1.2191014E0,-1.7824666E-1,1.1241792E0,-4.4132227E-1,9.897872E-1,1.5000433E0,4.0735477E-1,5.4312396E-1,-7.698196E-1,1.0335675E0,-9.718994E-1,-2.7929538E-1,-1.1246424E0,-1.3619015E0,-2.597044E-1,1.9794017E-1,-9.4822055E-1,-1.572078E0,-5.1109725E-1,1.0633414E0,-1.0459418E-1,5.5420995E-1,-5.715562E-1,-1.9360927E-1,1.1790867E0,-1.1155818E-1,-1.1926888E0,-9.23752E-1,7.379534E-1,1.1949703E0,-3.2266226E-1,2.1685494E-1,1.4080344E0,-6.260656E-1,6.4743066E-1,9.5069885E-1,-1.9838655E-1,8.6908036E-1,1.849974E-1,1.3675082E0,6.477474E-1,7.682888E-2,-8.4935576E-1,-6.1147976E-1,3.8577285E-1,1.1912909E0,-2.8606862E-1,1.2397984E0,1.5323052E-1,-5.810516E-1,2.9794145E-1,-1.4486884E0,2.9356092E-1,-1.3948857E0,-4.364867E-1],"categories":[],"categories_nodes":[],"categories_segments":[],"categories_sizes":[],"default_left":[1,1,1,1,1,1,1,1,1,1,1,0,1,0,0,1,1,1,0,1,1,1,1,1,1,1,1,1,1,0,1,1,1,0,1,1,0,1,1,0,0,0,0,1,1,0,1,1,0,1,1,0,0,0,0,1,1,0,0,1,0,1,1,1,1,0,1,1,1,1,1,1,1,1,1,1,0,1,1,1,1,0,0,1,0,1,0,0,1,0,0,0,1,1,1,1,1,0,0,0,0,1,1,0,0,0,1,1,0,0,0,1,1,1,0,1,0,1,0,1,1,0,0,1,0,0,0,1,1,1,0,1,1,1,0,1,1,0,1,0,0,1,1,1,1,1,0,1,1,0,0,0,0,1,0,1,1,1,0,0,0,0,0,0,0,0,0,0,0,0,0,0,0,0,0,0,0,0,0,0,0,0,0,0,0,0,0,0,0,0,0,0,0,0,0,0,0,0,0],"id":6,"left_children":[1,3,5,7,9,11,13,15,17,19,21,-1,23,-1,-1,25,27,29,-1,31,33,35,37,39,41,43,45,47,49,-1,51,53,55,-1,57,59,-1,61,63,-1,-1,-1,-1,65,67,-1,69,71,-1,73,75,-1,-1,-1,-1,77,79,-1,-1,81,-1,83,85,87,89,-1,91,93,95,97,99,101,103,105,107,109,-1,111,113,115,117,-1,-1,119,-1,121,-1,-1,123,-1,-1,-1,125,127,129,131,133,-1,-1,-1,-1,135,137,-1,-1,-1,139,141,-1,-1,-1,143,145,147,-1,149,-1,151,-1,153,155,-1,-1,157,-1,-1,-1,159,161,163,-1,165,167,169,-1,171,173,-1,175,-1,-1,177,179,181,183,185,-1,187,189,-1,-1,-1,-1,191,-1,193,195,197,-1,-1,-1,-1,-1,-1,-1,-1,-1,-1,-1,-1,-1,-1,-1,-1,-1,-1,-1,-1,-1,-1,-1,-1,-1,-1,-1,-1,-1,-1,-1,-1,-1,-1,-1,-1,-1,-1,-1,-1,-1],"loss_changes":[3.0519644E2,2.0837918E2,2.2375E1,1.07369484E2,6.806311E1,2.0456543E0,4.8483E0,8.655466E1,2.4368782E0,5.171486E1,2.3104403E1,0E0,2.3284912E-1,0E0,0E0,3.263469E1,1.852681E1,4.6568108E0,0E0,1.773439E1,3.9286404E0,1.1544069E1,1.5438328E1,7.7056885E-2,1.6732712E0,2.6493881E1,3.9989815E0,2.2198029E0,3.9606848E0,0E0,4.545611E0,2.8541336E0,1.7276817E1,0E0,2.7049391E0,2.9846764E0,0E0,9.198536E0,3.9154854E0,0E0,0E0,0E0,0E0,2.2064095E0,2.1320633E1,0E0,2.8980322E0,1.611206E0,0E0,2.4889076E0,2.9113188E0,0E0,0E0,0E0,0E0,1.659647E1,2.1111526E0,0E0,0E0,1.5008278E0,0E0,7.36246E0,1.0530138E-1,2.2790222E0,3.7037964E0,0E0,7.649336E-1,2.2596985E1,8.820256E0,9.6742475E-1,4.9837303E-1,2.525444E0,1.2002125E0,1.9079123E0,2.0222256E0,3.3398056E-1,0E0,8.007393E0,1.7822994E1,4.4103165E0,3.2968152E0,0E0,0E0,5.4301944E0,0E0,1.3279088E0,0E0,0E0,2.3508759E0,0E0,0E0,0E0,3.7622354E0,1.5377106E1,3.440913E0,3.7900562E0,4.862902E0,0E0,0E0,0E0,0E0,2.3728838E0,3.0773983E0,0E0,0E0,0E0,4.1658545E-1,2.946284E0,0E0,0E0,0E0,5.492012E0,3.5961423E0,2.249149E1,0E0,3.255005E-1,0E0,1.9678682E0,0E0,8.347538E0,3.4024668E0,0E0,0E0,7.5956345E-1,0E0,0E0,0E0,3.924579E1,6.1416626E-3,2.0590634E0,0E0,3.3708093E0,2.6985645E0,1.3710194E0,0E0,3.784082E0,3.0532343E0,0E0,1.0171013E0,0E0,0E0,2.742082E0,1.5628169E0,2.4972482E0,3.2365036E0,1.8290673E0,0E0,5.6896324E0,4.2809105E0,0E0,0E0,0E0,0E0,8.0406E-1,0E0,2.2627287E0,4.938011E0,4.3411255E-2,0E0,0E0,0E0,0E0,0E0,0E0,0E0,0E0,0E0,0E0,0E0,0E0,0E0,0E0,0E0,0E0,0E0,0E0,0E0,0E0,0E0,0E0,0E0,0E0,0E0,0E0,0E0,0E0,0E0,0E0,0E0,0E0,0E0,0E0,0E0,0E0,0E0,0E0,0E0,0E0,0E0],"parents":[2147483647,0,0,1,1,2,2,3,3,4,4,5,5,6,6,7,7,8,8,9,9,10,10,12,12,15,15,16,16,17,17,19,19,20,20,21,21,22,22,23,23,24,24,25,25,26,26,27,27,28,28,30,30,31,31,32,32,34,34,35,35,37,37,38,38,43,43,44,44,46,46,47,47,49,49,50,50,55,55,56,56,59,59,61,61,62,62,63,63,64,64,66,66,67,67,68,68,69,69,70,70,71,71,72,72,73,73,74,74,75,75,77,77,78,78,79,79,80,80,83,83,85,85,88,88,92,92,93,93,94,94,95,95,96,96,101,101,102,102,106,106,107,107,111,111,112,112,113,113,115,115,117,117,119,119,120,120,123,123,127,127,128,128,129,129,131,131,132,132,133,133,135,135,136,136,138,138,141,141,142,142,143,143,144,144,145,145,147,147,148,148,153,153,155,155,156,156,157,157],"right_children":[2,4,6,8,10,12,14,16,18,20,22,-1,24,-1,-1,26,28,30,-1,32,34,36,38,40,42,44,46,48,50,-1,52,54,56,-1,58,60,-1,62,64,-1,-1,-1,-1,66,68,-1,70,72,-1,74,76,-1,-1,-1,-1,78,80,-1,-1,82,-1,84,86,88,90,-1,92,94,96,98,100,102,104,106,108,110,-1,112,114,116,118,-1,-1,120,-1,122,-1,-1,124,-1,-1,-1,126,128,130,132,134,-1,-1,-1,-1,136,138,-1,-1,-1,140,142,-1,-1,-1,144,146,148,-1,150,-1,152,-1,154,156,-1,-1,158,-1,-1,-1,160,162,164,-1,166,168,170,-1,172,174,-1,176,-1,-1,178,180,182,184,186,-1,188,190,-1,-1,-1,-1,192,-1,194,196,198,-1,-1,-1,-1,-1,-1,-1,-1,-1,-1,-1,-1,-1,-1,-1,-1,-1,-1,-1,-1,-1,-1,-1,-1,-1,-1,-1,-1,-1,-1,-1,-1,-1,-1,-1,-1,-1,-1,-1,-1,-1],"split_conditions":[1.425E0,2.3850002E0,2.935E0,3.4250002E0,-2.55E-1,3.475E0,6.785E0,5.685E0,5.19E0,5.705E0,5.5E0,-6.0723512E-3,1.83E0,5.923103E-2,-3.2223877E-2,5.65E1,-5E-3,8E-2,7.580845E-2,5.5E0,1.23E0,5.91E0,4.15E-1,1.0014999E1,1.91E0,9.45E-1,-1.55E-1,1.925E0,3.5E0,6.5404736E-2,-1.8E-1,4.175E0,2.5E0,-7.411482E-2,7.645E0,6.3100004E0,-5.4577064E-2,1.5E0,5.3499997E-1,-7.847103E-2,-2.4885336E-2,-5.3050653E-3,-6.1822336E-2,-4.8000002E-1,6.5E0,6.881947E-2,4.38E0,8.345E0,-1.0721773E-3,7.18E0,5E-1,-4.7382515E-2,4.05176E-2,7.2684035E-2,9.608903E-3,-3.5E-2,6.85E1,-4.7511987E-2,2.5954226E-2,5.1E-1,-7.18496E-4,7.215E0,1.1E1,-7.6400003E0,4.245E0,-7.8732E-3,-2.4E-1,5E-1,-1.4500001E-1,-3.5000002E-1,-1.79E0,1.8E1,-5.15E-1,4.4E0,3.25E-1,7.05E1,-2.1027735E-2,-3.45E-1,2.8E1,8.125E0,7.3E1,7.297885E-2,1.5311209E-2,-3.455E0,5.4154366E-2,2.5E0,6.24592E-2,-7.1572285E-4,7E0,4.576174E-2,-3.937397E-2,7.485769E-2,5.5E0,5.5150003E0,2.1399999E0,5.6E1,1.63E2,7.881188E-3,-4.1542713E-2,6.8848664E-3,5.329315E-2,-3.85E-1,5E-1,1.3717738E-2,7.344072E-2,1.090772E-2,3.2999998E-1,-3.5E-1,-4.6012823E-2,5.9590865E-2,1.4682988E-2,5.41E0,5.71E0,6.05E1,6.627276E-2,5E-1,-1.357179E-2,9E0,5.6348313E-2,3.5E1,5.385E0,4.8493017E-2,-1.0124729E-2,1.75E1,-2.9342347E-3,5.9896667E-2,-2.8653232E-2,5.5E0,4.05E1,1.1E1,-2.525579E-2,5E-1,1.05E1,-2.6E-1,3.3863176E-2,3.9999998E-1,-1.85E-1,-2.5240092E-3,-7.505E0,-5.819708E-2,-1.3780551E-2,1.4E-1,1.001E1,3.755E0,7.815E0,7.25E1,5.6208964E-2,4.9700003E0,3E-1,7.500216E-2,2.036774E-2,2.7156198E-2,-3.849098E-2,2.1000001E-1,-4.859497E-2,3.3E1,6.59E0,8.1E1,-1.2985221E-2,9.897009E-3,-4.741103E-2,-7.86039E-2,-2.5554864E-2,5.316707E-2,-5.229709E-3,2.7710497E-2,-2.857781E-2,-9.680464E-3,5.8954336E-2,-5.577909E-3,-5.9634443E-2,-4.6187602E-2,3.689767E-2,5.974851E-2,-1.6133113E-2,1.0842747E-2,7.040172E-2,-3.1303283E-2,3.2371532E-2,4.7534943E-2,-9.919328E-3,4.3454017E-2,9.24987E-3,6.837541E-2,3.2387372E-2,3.8414442E-3,-4.2467788E-2,-3.0573988E-2,1.9288642E-2,5.9564542E-2,-1.4303431E-2,6.1989922E-2,7.661526E-3,-2.905258E-2,1.4897073E-2,-7.243442E-2,1.4678046E-2,-6.974428E-2,-2.1824336E-2],"split_indices":[2,5,3,1,14,8,5,6,1,0,21,0,3,0,0,33,13,12,0,21,1,0,12,5,3,8,13,5,31,0,14,0,33,0,0,8,0,34,13,0,0,0,0,14,32,0,8,6,0,6,19,0,0,0,0,13,21,0,0,12,0,6,34,6,8,0,5,29,14,14,6,21,13,8,13,31,0,14,22,6,20,0,0,6,0,34,0,0,31,0,0,0,21,0,6,21,32,0,0,0,0,13,19,0,0,0,13,14,0,0,0,5,6,20,0,11,0,34,0,21,8,0,0,37,0,0,0,21,37,21,0,19,32,13,0,5,14,0,5,0,0,5,6,5,5,21,0,6,13,0,0,0,0,13,0,20,8,21,0,0,0,0,0,0,0,0,0,0,0,0,0,0,0,0,0,0,0,0,0,0,0,0,0,0,0,0,0,0,0,0,0,0,0,0,0,0,0,0,0],"split_type":[0,0,0,0,0,0,0,0,0,0,0,0,0,0,0,0,0,0,0,0,0,0,0,0,0,0,0,0,0,0,0,0,0,0,0,0,0,0,0,0,0,0,0,0,0,0,0,0,0,0,0,0,0,0,0,0,0,0,0,0,0,0,0,0,0,0,0,0,0,0,0,0,0,0,0,0,0,0,0,0,0,0,0,0,0,0,0,0,0,0,0,0,0,0,0,0,0,0,0,0,0,0,0,0,0,0,0,0,0,0,0,0,0,0,0,0,0,0,0,0,0,0,0,0,0,0,0,0,0,0,0,0,0,0,0,0,0,0,0,0,0,0,0,0,0,0,0,0,0,0,0,0,0,0,0,0,0,0,0,0,0,0,0,0,0,0,0,0,0,0,0,0,0,0,0,0,0,0,0,0,0,0,0,0,0,0,0,0,0,0,0,0,0,0,0,0,0,0,0],"sum_hessian":[1.0024925E3,8.3404596E2,1.6844653E2,4.9387894E2,3.40167E2,1.6385718E2,4.589364E0,4.620473E2,3.1831635E1,2.6128217E2,7.8884834E1,1.1948916E0,1.6266228E2,3.139937E0,1.449427E0,4.0196866E2,6.0078644E1,8.702487E0,2.3129148E1,2.4977159E2,1.1510559E1,1.5999683E1,6.288515E1,1.5551088E2,7.1514044E0,3.9037094E2,1.1597713E1,3.6031616E1,2.4047028E1,4.8114996E0,3.8909874E0,6.1077587E1,1.8869402E2,8.369903E0,3.140656E0,1.4085908E1,1.9137754E0,3.482972E1,2.8055433E1,1.542957E2,1.2151752E0,1.9114329E0,5.239971E0,7.9159136E0,3.8245505E2,6.2650948E0,5.3326187E0,3.4118675E1,1.9129426E0,1.879118E1,5.2558475E0,1.9519106E0,1.9390768E0,5.8889446E1,2.188141E0,1.4360022E2,4.5093796E1,1.2129179E0,1.927738E0,1.2164943E1,1.9209654E0,2.9337053E1,5.4926643E0,2.4931286E1,3.124148E0,1.2360668E0,6.679847E0,3.5665488E2,2.5800148E1,2.6698914E0,2.6627274E0,2.0160551E1,1.3958124E1,6.501171E0,1.2290009E1,3.8019793E0,1.453868E0,8.075234E1,6.2847874E1,3.8454628E1,6.6391673E0,1.0221255E1,1.9436872E0,2.6685717E1,2.651337E0,2.4207397E0,3.071925E0,1.673021E0,2.3258265E1,1.431016E0,1.6931319E0,3.4725316E0,3.2073152E0,3.4676117E2,9.893725E0,1.688118E1,8.918967E0,1.2008065E0,1.469085E0,1.1980466E0,1.4646807E0,8.202841E0,1.195771E1,1.4534929E0,1.2504631E1,1.2128311E0,5.2883396E0,1.1087442E1,1.2025666E0,2.3752906E0,1.4266886E0,6.977128E1,1.0981067E1,5.2077297E1,1.0770573E1,3.7251827E1,1.2027991E0,2.6479852E0,3.9911819E0,6.869592E0,1.9816124E1,1.2135005E0,1.2072392E0,2.1561285E1,1.6969784E0,1.9744822E0,1.232833E0,3.133518E2,3.3409348E1,8.211573E0,1.6821526E0,8.663909E0,8.217271E0,7.4723635E0,1.446604E0,3.6441803E0,4.5586605E0,1.9151548E0,1.0042556E1,3.8363748E0,1.451965E0,6.515912E0,4.571531E0,2.2155018E1,4.761626E1,9.303635E0,1.6774321E0,3.7751442E1,1.4325857E1,3.607785E1,1.1739804E0,1.192807E0,1.4551783E0,4.4751883E0,2.3944037E0,1.099651E1,8.819614E0,2.0368692E1,1.192593E0,3.307563E1,2.8027618E2,3.21927E1,1.2166486E0,6.5342655E0,1.6773067E0,4.5841703E0,4.079739E0,1.441736E0,6.7755346E0,1.6855129E0,5.7868505E0,2.1835248E0,1.4606553E0,3.1261473E0,1.4325135E0,1.2096978E0,8.832858E0,5.081003E0,1.4349085E0,3.3590863E0,1.2124444E0,1.18946E1,1.0260419E1,3.6692173E1,1.0924087E1,7.3830137E0,1.9206207E0,3.1526262E1,6.225179E0,1.242913E1,1.8967273E0,3.2949736E0,1.1802146E0,7.2170944E0,3.7794154E0,7.1617312E0,1.6578834E0,1.9177835E1,1.1908572E0],"tree_param":{"num_deleted":"0","num_feature":"43","num_nodes":"199","size_leaf_vector":"0"}},{"base_weights":[-2.4057302E-1,-6.6661274E-1,1.2996523E0,-8.9278656E-1,1.1831222E0,1.3560666E0,-1.2848186E0,-1.0822185E0,1.2074335E0,1.3848958E0,-8.0851805E-1,8.0450964E-1,1.4523839E0,8.90603E-1,-1.1128454E0,3.733163E-1,1.4006135E0,9.4121057E-1,1.5254595E0,-1.2418468E0,9.81719E-1,5.81554E-1,1.3264396E0,7.7384704E-1,1.4899877E0,1.3273847E0,-6.511195E-2,-1.2076602E0,-5.5878365E-1,-3.603459E-1,1.1444741E0,1.0456007E0,-3.1070802E-1,1.5409178E0,4.253036E-1,-4.002285E-1,-1.3368859E0,2.7056146E-1,9.579118E-1,9.878101E-1,-2.8543044E-2,1.4984784E0,3.921867E-1,-8.698691E-1,1.0337067E0,-1.2442274E0,-2.664388E-1,-7.591747E-1,3.934632E-1,-1.0129791E0,7.465751E-1,2.7976345E-2,1.3998213E0,1.1545397E0,-3.497586E-1,1.5568528E0,4.314975E-1,5.586331E-1,-6.559886E-1,4.1953016E-2,1.0627242E0,1.1010417E0,1.22754E-1,-5.557487E-1,5.166292E-1,1.5069522E0,7.03939E-1,-1.2645892E0,8.584159E-2,7.159819E-1,-1.292541E0,-8.7652016E-1,1.7126766E-1,-2.2551985E-1,9.538684E-1,-3.0878127E-1,-1.2237171E0,4.07766E-1,1.2789725E0,4.5531854E-1,1.5727559E0,2.7911758E-1,1.0551366E0,4.69379E-2,-1.1633768E0,1.1542084E0,3.8007948E-1,6.281807E-2,9.9661905E-1,-1.1762053E0,-1.5040035E0,7.8064567E-1,-5.63285E-1,9.3458927E-1,-4.648218E-1,-1.4365706E0,-3.138481E-1,-9.3713176E-1,1.1836596E-1,-6.379108E-1,7.0741844E-1,-7.031743E-1,5.7925653E-1,1.1443485E0,-1.5673563E-1,-6.8808E-1,1.110466E0,1.398829E0,6.5229565E-1,1.5898877E0,5.470186E-1,4.3875355E-1,-3.4653854E-1,-1.2240528E0,-4.6371606E-1,-1.5236089E0,-8.6995775E-1,1.1409593E0,-1.3014308E-1,-1.0101492E0,3.3781752E-1,2.1706408E-1,1.2729342E0,1.1959017E-1,-9.7915936E-1,4.7897303E-1,-5.303074E-1,1.9446439E-1,-1.1116483E0,-1.2834541E-1,9.3212897E-1,3.843798E-2,-1.0640566E0,9.985834E-1,-8.219152E-2,2.1806504E-1,1.4567353E0,6.488962E-1,1.516831E0,1.0255921E0,1.16988756E-1,1.0185527E0,8.6388305E-2,-1.2653136E0,-6.1414325E-1,-6.18952E-1,3.0520296E-1,-8.581729E-2,-1.0725845E0,-4.7077832E-1,8.2940036E-1,3.678213E-1,1.4621507E0,-1.790573E-1,3.5859844E-1,-1.016609E0,2.4381126E-1,-1.0472706E-1,8.071651E-1,3.6485445E-1,1.1593715E0,9.190662E-1,8.6844936E-2,-6.1525077E-1,5.738241E-1],"categories":[],"categories_nodes":[],"categories_segments":[],"categories_sizes":[],"default_left":[1,1,1,1,1,1,0,1,1,1,1,1,1,1,1,1,0,1,1,1,0,1,0,1,1,0,1,1,1,1,1,1,0,1,0,0,0,1,1,1,1,1,0,0,0,1,1,1,1,1,0,0,0,1,0,1,0,1,1,0,1,0,0,0,0,0,1,1,1,1,1,1,1,1,1,0,0,1,1,0,1,1,0,0,0,0,0,0,0,1,1,1,1,1,0,0,0,1,1,1,1,1,1,1,0,0,0,1,1,0,0,1,0,1,1,0,1,0,0,0,0,1,1,1,1,1,0,0,0,0,1,0,0,0,0,0,0,1,0,0,0,0,1,0,0,0,0,0,0,0,0,0,0,0,0,0,0,0,0,0,0,0,0,0,0],"id":7,"left_children":[1,3,5,7,9,11,-1,13,15,17,19,21,23,25,27,29,-1,31,33,35,-1,37,-1,39,41,-1,43,45,47,49,51,53,-1,55,-1,-1,-1,57,59,61,63,65,-1,-1,-1,67,69,71,73,75,-1,-1,-1,77,-1,79,-1,81,83,-1,85,-1,-1,-1,-1,-1,87,89,91,93,95,97,99,101,103,-1,-1,105,107,-1,109,111,-1,-1,-1,-1,-1,-1,-1,113,115,117,119,121,-1,-1,-1,123,125,127,129,131,133,135,-1,-1,-1,137,139,-1,-1,141,-1,143,145,-1,147,-1,-1,-1,-1,149,151,153,155,157,-1,-1,-1,-1,159,-1,-1,-1,-1,-1,-1,161,-1,-1,-1,-1,163,-1,-1,-1,-1,-1,-1,-1,-1,-1,-1,-1,-1,-1,-1,-1,-1,-1,-1,-1,-1,-1,-1],"loss_changes":[6.5778357E2,3.2940555E2,3.3417725E1,2.7976318E2,3.5655754E1,1.0152222E1,0E0,3.9813538E1,8.883949E0,3.4539185E0,7.8418965E0,3.176035E0,3.4442444E0,4.4185457E0,3.2586548E1,7.3947415E0,0E0,3.131258E0,3.2980347E-1,5.003357E-2,0E0,2.7312517E0,0E0,2.0096412E0,9.9349976E-1,0E0,4.6206384E0,1.8246277E1,1.8308044E1,5.874527E0,1.7444925E0,3.4516296E0,0E0,3.314209E-1,0E0,0E0,0E0,4.4724336E0,1.02742E0,7.6009846E-1,1.2648005E0,7.015991E-2,0E0,0E0,0E0,1.4172852E1,2.2557272E1,8.700382E0,6.1352105E0,3.465414E-1,0E0,0E0,0E0,1.2282887E0,0E0,2.5717163E-1,0E0,1.4090028E0,1.5198799E0,0E0,1.8448639E-1,0E0,0E0,0E0,0E0,0E0,6.221405E-1,9.05542E0,4.393605E0,3.4303703E0,1.0789127E0,4.314209E0,4.6191387E0,3.8355434E0,2.1146793E0,0E0,0E0,3.9656582E0,2.6477814E-1,0E0,8.555603E-2,1.0722375E0,0E0,0E0,0E0,0E0,0E0,0E0,0E0,1.2325745E1,3.444519E-1,1.6756105E0,2.400162E0,2.1818361E0,0E0,0E0,0E0,3.0399818E0,1.3979945E0,1.9332521E0,1.293875E0,1.6596229E0,1.1554729E0,1.9768057E0,0E0,0E0,0E0,1.02703094E-1,7.5728285E-1,0E0,0E0,1.5018051E0,0E0,8.126343E0,3.2219648E0,0E0,9.1852045E-1,0E0,0E0,0E0,0E0,2.264834E0,6.053982E-1,3.0750984E-1,3.151802E0,7.873227E-1,0E0,0E0,0E0,0E0,2.27808E-1,0E0,0E0,0E0,0E0,0E0,0E0,4.3914425E-1,0E0,0E0,0E0,0E0,2.3820846E0,0E0,0E0,0E0,0E0,0E0,0E0,0E0,0E0,0E0,0E0,0E0,0E0,0E0,0E0,0E0,0E0,0E0,0E0,0E0,0E0,0E0,0E0],"parents":[2147483647,0,0,1,1,2,2,3,3,4,4,5,5,7,7,8,8,9,9,10,10,11,11,12,12,13,13,14,14,15,15,17,17,18,18,19,19,21,21,23,23,24,24,26,26,27,27,28,28,29,29,30,30,31,31,33,33,37,37,38,38,39,39,40,40,41,41,45,45,46,46,47,47,48,48,49,49,53,53,55,55,57,57,58,58,60,60,66,66,67,67,68,68,69,69,70,70,71,71,72,72,73,73,74,74,77,77,78,78,80,80,81,81,89,89,90,90,91,91,92,92,93,93,97,97,98,98,99,99,100,100,101,101,102,102,103,103,107,107,108,108,111,111,113,113,114,114,116,116,121,121,122,122,123,123,124,124,125,125,130,130,137,137,142,142],"right_children":[2,4,6,8,10,12,-1,14,16,18,20,22,24,26,28,30,-1,32,34,36,-1,38,-1,40,42,-1,44,46,48,50,52,54,-1,56,-1,-1,-1,58,60,62,64,66,-1,-1,-1,68,70,72,74,76,-1,-1,-1,78,-1,80,-1,82,84,-1,86,-1,-1,-1,-1,-1,88,90,92,94,96,98,100,102,104,-1,-1,106,108,-1,110,112,-1,-1,-1,-1,-1,-1,-1,114,116,118,120,122,-1,-1,-1,124,126,128,130,132,134,136,-1,-1,-1,138,140,-1,-1,142,-1,144,146,-1,148,-1,-1,-1,-1,150,152,154,156,158,-1,-1,-1,-1,160,-1,-1,-1,-1,-1,-1,162,-1,-1,-1,-1,164,-1,-1,-1,-1,-1,-1,-1,-1,-1,-1,-1,-1,-1,-1,-1,-1,-1,-1,-1,-1,-1,-1],"split_conditions":[3.855E0,1.05000004E-1,5E-1,8.5E-2,3.6750002E0,5.51E0,-6.424093E-2,9.45E-1,2.15E-1,2.55E-1,1.6E-1,2.4999999E-2,1.575E0,-3E-2,-2.8E-1,-2.3400002E0,7.003068E-2,5E-1,1.1790001E1,-1.4449999E0,4.9085952E-2,-5E-2,6.6321984E-2,7.8499997E-1,6.95E-1,6.6369236E-2,1.8E-1,6.5E-2,1.5E0,2.8E-1,-2.9500002E-1,3.5E0,-1.5535401E-2,2.3600001E0,2.126518E-2,-2.0011425E-2,-6.68443E-2,-1.715E0,3.675E0,1.47E0,-4.999995E-3,4.9999997E-2,1.9609336E-2,-4.3493457E-2,5.1685333E-2,8.13E2,3.25E-1,2.5E0,4E-2,1.25E-1,3.7328757E-2,1.3988173E-3,6.999107E-2,-2.68E0,-1.748793E-2,-1.865E0,2.1574875E-2,2.2E-1,1.5E-1,2.097651E-3,5.775E0,5.5052083E-2,6.1377003E-3,-2.7787436E-2,2.5831461E-2,7.534761E-2,-4.08E0,5E-1,4.575E0,4.5950003E0,4.5999998E-1,4.215E0,-1E-2,1.25E1,3.42E0,-1.5439063E-2,-6.1185855E-2,-8.46E0,5E-3,2.2765927E-2,7.96E0,5.55E0,5.2756827E-2,2.3468952E-3,-5.816884E-2,5.771042E-2,1.9003974E-2,3.1409038E-3,4.9830955E-2,1.5E-2,1.72E0,-2.53E0,3.5005E3,4.865E0,-2.324109E-2,-7.182854E-2,-1.5692405E-2,-3.63E0,2.55E-1,6.95E-1,6.4E-1,4.8500004E0,2.9299998E0,4.85E-1,-7.836781E-3,-3.4404002E-2,5.5523302E-2,4.3E0,4.32E0,7.949439E-2,2.735093E-2,4E-2,-1.7326927E-2,5E-3,1.78E0,-7.618045E-2,1.86E0,5.7047963E-2,-6.507154E-3,-5.0507464E-2,1.6890876E-2,2.6E-1,9.5E-2,-4.9049997E0,8.55E1,1.9999999E-1,-2.651537E-2,9.723219E-3,-5.5582415E-2,-6.4172707E-3,2.19E0,1.921899E-3,-5.3202834E-2,4.9929168E-2,-4.109576E-3,1.0903252E-2,7.2836764E-2,5.5000007E-2,7.584155E-2,5.1279604E-2,5.849438E-3,5.0927635E-2,4.665E0,-6.326568E-2,-3.0707164E-2,-3.09476E-2,1.5260148E-2,-4.290865E-3,-5.3629227E-2,-2.3538915E-2,4.1470017E-2,1.8391065E-2,7.310753E-2,-8.952865E-3,1.7929923E-2,-5.083045E-2,1.2190564E-2,-5.2363533E-3,4.0358257E-2,1.8242722E-2,5.7968576E-2,4.595331E-2,4.342247E-3,-3.0762538E-2,2.8691206E-2],"split_indices":[4,39,17,42,2,4,0,8,42,39,40,42,5,7,4,4,0,17,6,5,0,6,0,6,12,0,7,40,33,12,7,33,0,4,0,0,0,6,8,5,5,40,0,0,0,38,2,32,7,42,0,0,0,6,0,7,0,12,12,0,6,0,0,0,0,0,6,17,8,6,12,6,15,33,7,0,0,4,9,0,5,8,0,0,0,0,0,0,0,39,3,4,38,8,0,0,0,7,15,4,4,8,4,5,0,0,0,8,6,0,0,15,0,42,7,0,3,0,0,0,0,5,40,7,23,7,0,0,0,0,4,0,0,0,0,0,0,6,0,0,0,0,4,0,0,0,0,0,0,0,0,0,0,0,0,0,0,0,0,0,0,0,0,0,0],"split_type":[0,0,0,0,0,0,0,0,0,0,0,0,0,0,0,0,0,0,0,0,0,0,0,0,0,0,0,0,0,0,0,0,0,0,0,0,0,0,0,0,0,0,0,0,0,0,0,0,0,0,0,0,0,0,0,0,0,0,0,0,0,0,0,0,0,0,0,0,0,0,0,0,0,0,0,0,0,0,0,0,0,0,0,0,0,0,0,0,0,0,0,0,0,0,0,0,0,0,0,0,0,0,0,0,0,0,0,0,0,0,0,0,0,0,0,0,0,0,0,0,0,0,0,0,0,0,0,0,0,0,0,0,0,0,0,0,0,0,0,0,0,0,0,0,0,0,0,0,0,0,0,0,0,0,0,0,0,0,0,0,0,0,0,0,0],"sum_hessian":[1.0000971E3,7.8384576E2,2.1625136E2,6.989054E2,8.4940346E1,2.1209698E2,4.1543827E0,6.415268E2,5.737859E1,7.740325E1,7.537101E0,3.2922184E1,1.7917479E2,9.37785E0,6.321489E2,1.13413105E1,4.6037277E1,2.0473923E1,5.6929325E1,6.314896E0,1.2222047E0,2.4549482E1,8.372701E0,1.0541386E1,1.686334E2,6.169409E0,3.2084405E0,5.387711E2,9.337781E1,6.0849485E0,5.256362E0,1.9050238E1,1.423685E0,5.5745415E1,1.1839089E0,1.1695094E0,5.1453867E0,1.4383217E1,1.0166266E1,8.139772E0,2.401613E0,1.6697697E2,1.6564302E0,1.9723111E0,1.2361294E0,5.183124E2,2.0458788E1,7.731118E1,1.6066628E1,3.8813803E0,2.2035682E0,1.1849159E0,4.071446E0,1.7830736E1,1.2195029E0,5.4558464E1,1.1869502E0,1.12748575E1,3.1083586E0,1.1876479E0,8.978619E0,6.956414E0,1.1833582E0,1.2110622E0,1.1905508E0,1.6432779E2,2.649191E0,5.1054575E2,7.766609E0,1.0606266E1,9.852523E0,6.870429E1,8.606889E0,7.918263E0,8.148364E0,1.461822E0,2.4195583E0,3.157606E0,1.4673129E1,1.1981605E0,5.3360306E1,8.213236E0,3.0616217E0,1.6835251E0,1.4248337E0,7.3083982E0,1.6702199E0,1.2110326E0,1.4381583E0,3.7720633E2,1.3333943E2,3.6534574E0,4.113152E0,9.125362E0,1.4809036E0,8.180754E0,1.6717687E0,6.481369E1,3.8906047E0,3.354443E0,5.2524457E0,5.0482516E0,2.8700116E0,6.929499E0,1.2188654E0,1.2418195E0,1.9157865E0,1.128303E1,3.3900993E0,5.1942764E1,1.4175419E0,6.7816343E0,1.4316015E0,3.527961E2,2.4410194E1,1.2797917E2,5.360254E0,2.4367492E0,1.2167082E0,2.6687043E0,1.4444478E0,3.4501681E0,5.6751943E0,2.4085574E0,6.240513E1,2.6686656E0,1.221939E0,1.4305034E0,1.9239397E0,1.2038432E0,4.0486026E0,1.9449251E0,3.1033263E0,1.4445453E0,1.4254663E0,2.1758294E0,4.7536693E0,2.4176002E0,8.86543E0,1.457686E0,1.9324135E0,1.8488424E0,4.932792E0,3.2943503E2,2.3361103E1,2.0472141E1,3.938054E0,1.3930079E0,3.9672458E0,1.733778E0,1.7163901E0,1.4902989E0,4.1848955E0,1.182199E0,1.2263584E0,6.0714672E1,1.6904572E0,1.2055153E0,1.4631504E0,1.9031835E0,2.1454191E0,1.203767E0,1.2138333E0,1.9146016E0,3.0181906E0],"tree_param":{"num_deleted":"0","num_feature":"43","num_nodes":"165","size_leaf_vector":"0"}},{"base_weights":[-2.5656572E-1,-8.3261245E-1,1.3740461E0,-1.0889881E0,1.2285702E0,7.758669E-1,1.4658601E0,-1.155772E0,5.0644284E-1,1.4641773E0,-5.0761327E-2,4.7369123E-1,1.2758731E0,1.4735715E0,1.6981453E-1,4.940936E-1,-1.1799412E0,-1.4368872E-2,1.2124069E0,1.4770883E0,3.8878968E-1,-1.2279938E0,1.1481004E0,6.887044E-2,1.2844305E0,3.2072634E-1,1.3892295E0,5.6753516E-1,1.4855098E0,9.9939287E-1,-5.822198E-1,-1.2173525E0,-1.10400826E-1,1.0082364E0,-2.460686E-1,1.3321869E0,3.2273096E-1,4.6102363E-1,1.4887182E0,-3.925746E-1,-1.3232558E0,1.3473493E0,3.089851E-1,8.6788666E-1,-4.4985837E-1,1.4550462E0,4.443723E-1,-4.3927464E-1,1.068278E0,1.3173455E0,-2.5551218E-1,2.0509146E-1,-1.054443E0,-1.2607241E0,-5.345286E-1,6.097362E-1,-9.2216045E-1,-4.328027E-1,9.624251E-1,1.5127867E0,7.5740945E-1,1.1694146E0,-5.0578497E-2,-6.652768E-1,6.999691E-1,-1.2762504E0,1.9379841E-2,-3.1063335E-2,-1.2960124E0,9.847413E-1,-8.7084436E-1,-1.1930742E0,4.3554994E-1,-9.286269E-1,9.655408E-2,3.5335682E-3,1.0666885E0,2.1798843E-1,1.3930539E0,-9.2655075E-1,1.5878786E-1,-1.2930331E0,-1.3326553E-1,1.1499941E0,-8.4324145E-1,5.0916076E-1,-7.56163E-1,-1.40744E0,-3.5207123E-1,1.1962419E0,-2.9154104E-1,-1.3613132E0,-4.946525E-2,-1.2872555E0,-1.939784E-1,5.0269824E-1,-6.4961743E-1,4.837181E-2,-1.2735848E0,-2.030388E-1,-1.3094724E0,-7.313197E-1,4.543535E-1,-1.2487552E0,2.0195633E-1,1.0829705E0,4.3103904E-2,-1.1560624E0,3.6107418E-1,3.3472702E-1,1.4301571E0,-3.6808935E-1,6.8933845E-2,1.1803862E0,-1.7466314E-1,-9.3335575E-1,6.156647E-1,-1.0236728E0,-1.3502549E0,2.2142053E-1,-1.201937E0,8.886099E-1,-5.2909184E-1,1.4370347E0,1.0466772E-1,4.0884107E-1,-7.0194167E-1,-1.3391794E0,-9.552747E-2,-5.458937E-1,1.0999221E0,2.8488427E-1,-5.571601E-1],"categories":[],"categories_nodes":[],"categories_segments":[],"categories_sizes":[],"default_left":[1,1,1,1,1,1,1,1,1,1,1,1,1,1,0,1,1,1,1,1,0,1,1,1,0,0,1,1,0,1,1,1,1,0,1,0,0,0,1,0,0,0,0,1,1,0,0,0,0,0,0,0,0,1,1,1,1,1,0,0,1,1,0,1,0,1,1,1,1,1,0,1,0,1,1,0,0,0,0,1,0,1,1,0,1,1,1,0,0,1,0,0,0,0,1,1,0,0,0,1,1,1,1,0,0,1,1,1,1,0,0,0,0,0,1,0,0,0,0,0,0,0,0,0,0,0,0,0,0,0,0,0,0],"id":8,"left_children":[1,3,5,7,9,11,13,15,17,19,21,23,25,27,-1,29,31,33,35,37,-1,39,41,43,-1,-1,45,47,-1,49,51,53,55,-1,57,-1,-1,-1,59,-1,-1,-1,-1,61,63,-1,-1,-1,-1,-1,-1,-1,-1,65,67,69,71,73,-1,-1,75,77,-1,79,-1,81,83,85,87,89,-1,91,-1,93,95,-1,-1,-1,-1,97,-1,99,101,-1,103,105,107,-1,-1,109,-1,-1,-1,-1,111,113,-1,-1,-1,115,117,119,121,-1,-1,123,125,127,129,-1,-1,-1,-1,-1,131,-1,-1,-1,-1,-1,-1,-1,-1,-1,-1,-1,-1,-1,-1,-1,-1,-1,-1],"loss_changes":[9.157672E2,3.8189355E2,1.28437805E1,6.8885315E1,2.4228737E1,4.834606E0,1.9442139E0,2.5129272E1,9.742388E0,3.657837E-1,2.0363253E1,7.797805E0,9.587021E-1,1.5163879E0,0E0,5.7986937E0,2.4152527E1,4.0886726E0,7.67931E-1,1.000061E-1,0E0,5.8220863E-2,7.825241E-1,7.470828E0,0E0,0E0,5.5740356E-2,2.715332E0,0E0,3.0880165E0,1.5905439E0,1.6691284E1,1.3197077E1,0E0,3.5801296E0,0E0,0E0,0E0,4.348755E-3,0E0,0E0,0E0,0E0,2.0160408E0,3.1944838E0,0E0,0E0,0E0,0E0,0E0,0E0,0E0,0E0,1.0968201E1,1.4051344E1,7.5508485E0,4.4032755E0,3.457753E0,0E0,0E0,9.486244E-1,8.370447E-1,0E0,2.2552452E0,0E0,1.0263306E1,8.365637E0,9.453757E0,1.0406361E0,3.071886E0,0E0,1.677638E0,0E0,1.5208559E0,2.4819202E0,0E0,0E0,0E0,0E0,2.6263251E0,0E0,9.339233E0,3.490672E0,0E0,2.3198566E0,3.661095E0,5.01336E0,0E0,0E0,1.3047476E0,0E0,0E0,0E0,0E0,1.8018223E-1,2.5790167E0,0E0,0E0,0E0,6.044271E0,4.77063E0,2.435068E0,2.669555E0,0E0,0E0,1.9876318E0,2.6554937E0,1.3894253E0,2.92805E0,0E0,0E0,0E0,0E0,0E0,7.6625925E-1,0E0,0E0,0E0,0E0,0E0,0E0,0E0,0E0,0E0,0E0,0E0,0E0,0E0,0E0,0E0,0E0,0E0,0E0],"parents":[2147483647,0,0,1,1,2,2,3,3,4,4,5,5,6,6,7,7,8,8,9,9,10,10,11,11,12,12,13,13,15,15,16,16,17,17,18,18,19,19,21,21,22,22,23,23,26,26,27,27,29,29,30,30,31,31,32,32,34,34,38,38,43,43,44,44,53,53,54,54,55,55,56,56,57,57,60,60,61,61,63,63,65,65,66,66,67,67,68,68,69,69,71,71,73,73,74,74,79,79,81,81,82,82,84,84,85,85,86,86,89,89,94,94,95,95,99,99,100,100,101,101,102,102,105,105,106,106,107,107,108,108,114,114],"right_children":[2,4,6,8,10,12,14,16,18,20,22,24,26,28,-1,30,32,34,36,38,-1,40,42,44,-1,-1,46,48,-1,50,52,54,56,-1,58,-1,-1,-1,60,-1,-1,-1,-1,62,64,-1,-1,-1,-1,-1,-1,-1,-1,66,68,70,72,74,-1,-1,76,78,-1,80,-1,82,84,86,88,90,-1,92,-1,94,96,-1,-1,-1,-1,98,-1,100,102,-1,104,106,108,-1,-1,110,-1,-1,-1,-1,112,114,-1,-1,-1,116,118,120,122,-1,-1,124,126,128,130,-1,-1,-1,-1,-1,132,-1,-1,-1,-1,-1,-1,-1,-1,-1,-1,-1,-1,-1,-1,-1,-1,-1,-1],"split_conditions":[3.5E-2,1.3499999E-1,1.55E-1,5.5E-2,5E-1,3.19E0,8E-2,9.45E-1,6.25E-1,1.1505E1,1.6E-1,2.4000001E-1,3.55E0,-6.92E0,8.490726E-3,-3E-2,8.5E-2,1.65E1,7.5E-2,-4.13E0,1.9439485E-2,-1.6E0,7.8050003E0,2.35E1,6.422152E-2,1.6036317E-2,5.6E-1,3.35E-1,7.4275486E-2,3.17E0,-5E-3,3.5E-2,5E-1,5.041182E-2,1.5E0,6.6609345E-2,1.6136548E-2,2.3051182E-2,8.75E1,-1.9628732E-2,-6.616279E-2,6.7367464E-2,1.5449256E-2,1.55E1,6.665E0,7.275231E-2,2.2218615E-2,-2.1963732E-2,5.3413898E-2,6.5867275E-2,-1.2775609E-2,1.0254573E-2,-5.2722152E-2,4.05E1,5E-1,1.85E1,4.95E-1,5E-1,4.8121255E-2,7.563934E-2,-6.62E0,3.2E-1,-2.528925E-3,9.2E1,3.4998458E-2,5E-1,-2.15E-1,2.15E1,1.735E0,3.875E0,-4.3542217E-2,1.485E0,2.1777498E-2,3.6E-1,3.6E-1,1.7667841E-4,5.3334426E-2,1.0899422E-2,6.96527E-2,-3.3499998E-1,7.939394E-3,-6.3E-1,-6.2200003E0,5.7499707E-2,1.195E0,1.05E1,-2.55E0,-7.0372E-2,-1.7603561E-2,-3.75E-1,-1.4577053E-2,-6.8065666E-2,-2.4732626E-3,-6.436278E-2,-2.7849998E0,5.25E1,-3.2480873E-2,2.4185905E-3,-6.367924E-2,3.25E1,5.5E0,4.16E0,1.45E1,-6.243776E-2,1.0097817E-2,5.7E0,7E-2,3.5E0,4.3E1,1.6736351E-2,7.1507856E-2,-1.8404467E-2,3.4466924E-3,5.901931E-2,-2.95E-1,-4.666779E-2,3.0783236E-2,-5.118364E-2,-6.751274E-2,1.1071026E-2,-6.009685E-2,4.4430494E-2,-2.6454592E-2,7.185174E-2,5.233386E-3,2.0442054E-2,-3.5097085E-2,-6.695897E-2,-4.7763735E-3,-2.7294686E-2,5.4996103E-2,1.4244214E-2,-2.7858004E-2],"split_indices":[41,39,41,42,17,4,40,8,42,6,40,42,8,5,0,15,40,20,15,7,0,5,7,20,0,0,15,41,0,6,13,39,17,0,33,0,0,0,20,0,0,0,0,21,5,0,0,0,0,0,0,0,0,33,17,20,40,19,0,0,4,12,0,20,0,29,13,20,3,6,0,6,0,42,15,0,0,0,0,13,0,13,4,0,4,21,4,0,0,13,0,0,0,0,6,20,0,0,0,20,21,8,20,0,0,8,13,33,21,0,0,0,0,0,7,0,0,0,0,0,0,0,0,0,0,0,0,0,0,0,0,0,0],"split_type":[0,0,0,0,0,0,0,0,0,0,0,0,0,0,0,0,0,0,0,0,0,0,0,0,0,0,0,0,0,0,0,0,0,0,0,0,0,0,0,0,0,0,0,0,0,0,0,0,0,0,0,0,0,0,0,0,0,0,0,0,0,0,0,0,0,0,0,0,0,0,0,0,0,0,0,0,0,0,0,0,0,0,0,0,0,0,0,0,0,0,0,0,0,0,0,0,0,0,0,0,0,0,0,0,0,0,0,0,0,0,0,0,0,0,0,0,0,0,0,0,0,0,0,0,0,0,0,0,0,0,0,0,0],"sum_hessian":[9.7271954E2,7.191534E2,2.5356615E2,6.400179E2,7.913553E1,3.4998318E1,2.1856784E2,6.1456793E2,2.5449945E1,6.670616E1,1.2429369E1,2.3028534E1,1.1969783E1,2.1713889E2,1.4289486E0,8.592218E0,6.059757E2,1.5209251E1,1.0240694E1,6.554568E1,1.1604798E0,6.2589955E0,6.170374E0,1.6082912E1,6.945621E0,1.6761154E0,1.0293668E1,3.4551263E0,2.1368376E2,5.8957796E0,2.6964383E0,5.853622E2,2.0613537E1,2.1904104E0,1.3018841E1,8.587187E0,1.6535071E0,1.2016586E0,6.434402E1,1.1648252E0,5.09417E0,4.4969006E0,1.6734732E0,6.066054E0,1.0016859E1,9.118526E0,1.1751407E0,1.1884149E0,2.2667115E0,4.6642513E0,1.2315283E0,1.2230334E0,1.473405E0,5.49606E2,3.575617E1,1.1055093E1,9.558443E0,1.183239E1,1.1864518E0,6.1259266E1,3.0847557E0,4.361098E0,1.7049558E0,8.7912445E0,1.2256149E0,5.430227E2,6.583281E0,2.2151318E1,1.3604852E1,9.088126E0,1.9669673E0,8.069531E0,1.4889119E0,5.720244E0,6.1121454E0,1.191607E0,1.8931485E0,1.2058395E0,3.1552584E0,6.5804973E0,2.2107472E0,5.350354E2,7.987315E0,2.7049015E0,3.8783798E0,1.2864574E1,9.286743E0,1.1729246E1,1.8756052E0,7.8499722E0,1.2381537E0,6.8686957E0,1.2008361E0,3.3383682E0,2.3818758E0,4.1691546E0,1.9429909E0,1.9534068E0,4.6270905E0,8.14788E0,5.268875E2,3.8373115E0,4.1500034E0,2.6539505E0,1.2244294E0,5.1724997E0,7.6920753E0,6.813276E0,2.473467E0,2.1953661E0,5.654606E0,1.1922644E0,1.1896113E0,1.7128525E0,2.4563022E0,4.2323813E0,3.9154983E0,6.9055374E1,4.5783215E2,1.4438407E0,2.3934708E0,2.9457092E0,1.2042942E0,3.4536572E0,1.7188425E0,5.4620504E0,2.230025E0,5.586026E0,1.2272499E0,1.2276405E0,1.2458265E0,1.2316937E0,1.2246084E0],"tree_param":{"num_deleted":"0","num_feature":"43","num_nodes":"133","size_leaf_vector":"0"}},{"base_weights":[-2.4495226E-1,-8.184152E-1,1.3245493E0,-1.058064E0,1.1813393E0,1.366668E0,-2.6194218E-1,-1.1294718E0,5.0989187E-1,1.369377E0,-3.0220422E-1,7.90482E-1,1.4506501E0,-6.9536215E-1,9.478626E-1,-1.1794491E0,-3.818461E-1,9.5626795E-1,-1.1197828E0,1.0802487E0,1.4946975E0,-6.9533765E-1,5.188062E-1,1.0351955E0,-5.778233E-3,1.4544458E0,4.9672425E-1,-1.0309656E0,3.4520233E-1,-1.2019123E0,2.6092136E-1,3.6772537E-1,-1.3149452E0,1.076302E0,-6.3094974E-1,-1.3423835E0,-2.0150118E-1,1.2365791E0,-5.3939443E-2,4.1708517E-1,1.5143628E0,-6.402365E-2,-1.0123478E0,9.285621E-1,-6.408713E-2,1.1823006E0,-2.8168243E-1,-6.1451757E-1,6.3712186E-1,-1.5887164E-1,-1.2700671E0,-1.2283194E0,-3.1529042E-1,1.2457427E0,-5.080867E-1,7.743624E-1,-3.5428166E-1,-1.397349E0,-5.866794E-1,1.3208622E0,3.0546367E-1,4.3855444E-1,1.3928272E0,8.6014926E-1,-7.688999E-1,-4.710119E-1,3.6586314E-1,1.3547065E0,6.2980837E-1,-9.552422E-1,5.18409E-1,2.574163E-1,-9.5508176E-1,1.200009E0,-3.8698238E-1,-3.3608794E-1,-1.252796E0,-6.714819E-1,5.8458585E-1,-1.1176876E0,1.09823614E-1,9.2623734E-1,-2.3871447E-1,-7.2609776E-1,1.0544573E0,5.461469E-2,-9.166385E-1,8.219818E-1,1.5112175E0,-5.64664E-1,8.77939E-1,8.8383335E-1,-5.419412E-1,1.439369E0,3.3771265E-1,1.6467659E-1,1.2144139E0,-1.2363042E0,-1.7014374E-1,7.0470273E-1,-7.1248156E-1,-1.2699286E0,-3.3474517E-1,-1.0406855E0,1.4566351E-2,8.5413116E-1,-1.1866869E-1,-5.413099E-1,5.986144E-1,2.4613205E-2,1.2194484E0,-1.3093799E0,6.0697354E-2,-5.464377E-2,1.0782887E0,2.3556505E-1,1.0544443E0,7.214201E-1,-7.5650924E-1,-1.1166967E-2,1.1173546E0,-9.106886E-1,3.2012513E-1,-6.0388587E-2,-1.2813253E0,3.3543223E-1,-1.0060344E0,-1.2342751E0,9.885091E-2,6.8289906E-1,-6.1935484E-1,2.0801643E-1,1.3157724E0,9.96619E-1,-7.081285E-1,1.3427476E0,1.9843373E-1,7.5387317E-1,-4.898824E-1,1.0061119E0,1.3010222E-1,-1.0768421E0,-1.2475362E-1,-5.351553E-1,4.5536286E-1,-1.2875298E0,3.584657E-1,-2.2222386E-1,9.347274E-1,-1.2591087E0,-3.070233E-2,-3.944565E-1,-1.3297607E0,1.4664705E-1,1.523448E0],"categories":[],"categories_nodes":[],"categories_segments":[],"categories_sizes":[],"default_left":[1,1,1,1,1,1,1,1,1,1,1,1,1,1,0,1,1,1,1,1,1,1,1,1,1,0,0,1,0,1,1,1,1,1,0,0,0,1,1,0,0,1,0,0,0,1,1,1,1,0,0,1,1,0,1,1,1,0,1,1,1,1,0,0,0,0,0,1,1,0,0,0,1,0,0,1,1,1,1,0,1,1,0,1,0,0,0,1,0,0,1,0,0,0,0,1,0,0,0,1,1,1,1,1,1,1,0,0,0,1,1,0,1,0,0,0,0,1,0,0,0,1,0,1,1,1,1,1,0,0,0,0,0,0,0,1,0,0,0,0,0,0,0,0,0,0,0,0,0,0,0,0,0,0,0],"id":9,"left_children":[1,3,5,7,9,11,13,15,17,19,21,23,25,27,-1,29,31,33,35,37,39,41,43,45,47,-1,-1,49,-1,51,53,55,57,59,-1,-1,-1,61,63,-1,-1,65,-1,-1,-1,67,69,71,73,-1,-1,75,77,-1,79,81,83,-1,85,87,89,91,-1,-1,-1,-1,-1,93,95,-1,-1,-1,97,-1,-1,99,101,103,105,-1,107,109,-1,111,-1,-1,-1,113,-1,-1,115,-1,-1,-1,-1,117,-1,-1,-1,119,121,123,125,127,129,131,-1,-1,-1,133,135,-1,137,-1,-1,-1,-1,139,-1,-1,-1,141,-1,143,145,147,149,151,-1,-1,-1,-1,-1,-1,-1,153,-1,-1,-1,-1,-1,-1,-1,-1,-1,-1,-1,-1,-1,-1,-1,-1,-1,-1,-1],"loss_changes":[8.647562E2,3.3835263E2,1.7542236E1,7.096393E1,2.1544617E1,1.0983429E1,4.586506E0,2.202771E1,2.1492086E1,8.277893E-1,3.3754373E0,6.64802E0,6.539917E-2,2.4830565E0,0E0,1.8543152E1,2.7882908E1,4.9802666E0,1.0574684E0,4.3201656E0,3.0969238E-1,1.2847159E0,9.186289E-1,5.3851013E0,3.9167478E0,0E0,0E0,8.109207E-1,0E0,1.2605774E1,7.8075175E0,6.8816614E0,2.4056816E-1,3.622902E0,0E0,0E0,0E0,2.0232353E0,3.1867616E0,0E0,0E0,7.53478E-1,0E0,0E0,0E0,1.399643E0,2.3426492E0,1.7709211E0,3.2728014E0,0E0,0E0,1.1340271E1,5.9683747E0,0E0,2.3940773E0,2.4844866E0,5.3720455E0,0E0,7.9484606E-1,2.69001E-1,3.7061627E0,2.6263597E0,0E0,0E0,0E0,0E0,0E0,9.911747E-1,1.8377454E0,0E0,0E0,0E0,6.517713E-1,0E0,0E0,6.670619E0,7.8135376E0,3.2897487E0,1.1377959E0,0E0,1.5668932E0,3.4061232E0,0E0,3.5444014E0,0E0,0E0,0E0,1.539051E0,0E0,0E0,2.3675203E-1,0E0,0E0,0E0,0E0,3.279469E0,0E0,0E0,0E0,1.3963971E0,2.7601376E0,7.0058594E0,5.2654686E0,1.9792042E0,2.7571256E0,9.4165087E-1,0E0,0E0,0E0,3.7043662E0,9.6569633E-1,0E0,1.9607852E0,0E0,0E0,0E0,0E0,5.145657E-1,0E0,0E0,0E0,1.2210302E0,0E0,1.6751348E0,5.6401978E0,2.2902846E0,1.3738365E0,5.8483124E-2,0E0,0E0,0E0,0E0,0E0,0E0,0E0,1.6265936E0,0E0,0E0,0E0,0E0,0E0,0E0,0E0,0E0,0E0,0E0,0E0,0E0,0E0,0E0,0E0,0E0,0E0,0E0,0E0],"parents":[2147483647,0,0,1,1,2,2,3,3,4,4,5,5,6,6,7,7,8,8,9,9,10,10,11,11,12,12,13,13,15,15,16,16,17,17,18,18,19,19,20,20,21,21,22,22,23,23,24,24,27,27,29,29,30,30,31,31,32,32,33,33,37,37,38,38,41,41,45,45,46,46,47,47,48,48,51,51,52,52,54,54,55,55,56,56,58,58,59,59,60,60,61,61,67,67,68,68,72,72,75,75,76,76,77,77,78,78,80,80,81,81,83,83,87,87,90,90,95,95,99,99,100,100,101,101,102,102,103,103,104,104,105,105,109,109,110,110,112,112,117,117,121,121,123,123,124,124,125,125,126,126,127,127,135,135],"right_children":[2,4,6,8,10,12,14,16,18,20,22,24,26,28,-1,30,32,34,36,38,40,42,44,46,48,-1,-1,50,-1,52,54,56,58,60,-1,-1,-1,62,64,-1,-1,66,-1,-1,-1,68,70,72,74,-1,-1,76,78,-1,80,82,84,-1,86,88,90,92,-1,-1,-1,-1,-1,94,96,-1,-1,-1,98,-1,-1,100,102,104,106,-1,108,110,-1,112,-1,-1,-1,114,-1,-1,116,-1,-1,-1,-1,118,-1,-1,-1,120,122,124,126,128,130,132,-1,-1,-1,134,136,-1,138,-1,-1,-1,-1,140,-1,-1,-1,142,-1,144,146,148,150,152,-1,-1,-1,-1,-1,-1,-1,154,-1,-1,-1,-1,-1,-1,-1,-1,-1,-1,-1,-1,-1,-1,-1,-1,-1,-1,-1],"split_conditions":[3.5E-2,1.3499999E-1,5.645E0,5.5E-2,1.53E0,1.55E-1,4.5000002E-1,3.5E-2,5.445E0,3.85E-1,4.85E-1,1.25E1,4.15E1,1.215E0,4.7393132E-2,5.2E1,5E-1,1.05E1,-2.9000002E-1,3.85E1,-1.635E0,1.85E-1,-5.2E-1,3.255E0,7.9E1,7.272229E-2,2.4836212E-2,-5.5499995E-1,1.7260117E-2,5E-1,-1.45E-1,2.15E1,-3.56E0,7.75E1,-3.1547487E-2,-6.711917E-2,-1.0075059E-2,-5.1E-1,-2E-1,2.0854259E-2,7.571814E-2,-6.505E0,-5.0617393E-2,4.6428107E-2,-3.2043566E-3,5E-1,3.55E-1,2.35E1,-3.05E-1,-7.943582E-3,-6.3503355E-2,-5.75E-1,4.4E-1,6.2287133E-2,5E-1,9.2E1,2.835E0,-6.9867454E-2,-1.7550001E0,-1.4300001E0,8.5E1,4.01E0,6.964136E-2,4.3007463E-2,-3.8444996E-2,-2.3550596E-2,1.8293157E-2,8.95E1,-7.75E-1,-4.776211E-2,2.592045E-2,1.2870816E-2,-3.9E-1,6.000045E-2,-1.9349119E-2,5.5E0,6.15E1,-2.65E-1,1.56E0,-5.588438E-2,6.999999E-2,-3E-1,-1.1935724E-2,5.35E1,5.2722868E-2,2.7307344E-3,-4.5831926E-2,-1.55E-1,7.5560875E-2,-2.82332E-2,4.3E-1,4.419167E-2,-2.7097061E-2,7.196845E-2,1.6885633E-2,-2.9500002E-1,6.0720693E-2,-6.181521E-2,-8.5071875E-3,-6.95E-1,3.85E-1,-6.45E0,-2.35E-1,3.05E-1,1.33E0,-2.05E0,-5.9334347E-3,-2.7065495E-2,2.993072E-2,8.5E-2,4.25E-1,-6.5469E-2,8.3E1,-2.7321884E-3,5.3914435E-2,1.1778253E-2,5.2722216E-2,5.5E0,-3.782546E-2,-5.583484E-4,5.586773E-2,4.9E1,1.6006257E-2,5E-1,2.2E1,-6.83E0,-8.45E-1,-6.8E-1,4.9425457E-3,3.4144953E-2,-3.0967742E-2,1.0400821E-2,6.578862E-2,4.983095E-2,-3.5406426E-2,-4.95E-1,9.921687E-3,3.769366E-2,-2.449412E-2,5.0305594E-2,6.5051108E-3,-5.3842105E-2,-6.237681E-3,-2.6757766E-2,2.2768144E-2,-6.4376496E-2,1.7923286E-2,-1.1111193E-2,4.673637E-2,-6.295543E-2,-1.5351166E-3,-1.9722825E-2,-6.6488035E-2,7.3323525E-3,7.6172404E-2],"split_indices":[41,39,0,42,2,41,42,39,0,39,39,21,26,7,0,34,17,21,14,20,7,39,14,0,20,0,0,14,0,18,13,20,4,20,0,0,0,14,13,0,0,4,0,0,0,19,42,20,14,0,0,13,7,0,19,21,7,0,4,5,20,7,0,0,0,0,0,20,6,0,0,0,14,0,0,21,38,14,6,0,7,13,0,21,0,0,0,13,0,0,42,0,0,0,0,14,0,0,0,13,9,7,14,12,5,6,0,0,0,39,13,0,21,0,0,0,0,21,0,0,0,20,0,19,29,4,6,14,0,0,0,0,0,0,0,14,0,0,0,0,0,0,0,0,0,0,0,0,0,0,0,0,0,0,0],"split_type":[0,0,0,0,0,0,0,0,0,0,0,0,0,0,0,0,0,0,0,0,0,0,0,0,0,0,0,0,0,0,0,0,0,0,0,0,0,0,0,0,0,0,0,0,0,0,0,0,0,0,0,0,0,0,0,0,0,0,0,0,0,0,0,0,0,0,0,0,0,0,0,0,0,0,0,0,0,0,0,0,0,0,0,0,0,0,0,0,0,0,0,0,0,0,0,0,0,0,0,0,0,0,0,0,0,0,0,0,0,0,0,0,0,0,0,0,0,0,0,0,0,0,0,0,0,0,0,0,0,0,0,0,0,0,0,0,0,0,0,0,0,0,0,0,0,0,0,0,0,0,0,0,0,0,0],"sum_hessian":[9.585813E2,7.024129E2,2.561684E2,6.27665E2,7.47479E1,2.496784E2,6.489981E0,6.005925E2,2.707249E1,6.640774E1,8.34016E0,3.3086975E1,2.1659143E2,5.091241E0,1.3987403E0,5.6241833E2,3.8174164E1,2.1575947E1,5.4965453E0,2.298914E1,4.3418602E1,5.7431674E0,2.5969927E0,2.5079315E1,8.00766E0,2.1521042E2,1.3810245E0,3.8566248E0,1.2346159E0,5.539449E2,8.473439E0,2.1504894E1,1.666927E1,2.0358238E1,1.2177076E0,4.0523677E0,1.4441776E0,2.0124949E1,2.864191E0,1.1761771E0,4.2242424E1,2.3216496E0,3.4215178E0,1.176751E0,1.4202417E0,2.2651201E1,2.428114E0,4.135782E0,3.8718777E0,1.1879982E0,2.6686265E0,5.3754913E2,1.639577E1,3.443555E0,5.029884E0,1.3710549E1,7.794345E0,1.4149509E1,2.5197606E0,1.4913246E1,5.444992E0,3.9184682E0,1.620648E1,1.1679173E0,1.6962739E0,1.1434458E0,1.1782036E0,1.6157299E1,6.4939013E0,1.2130159E0,1.215098E0,1.2302263E0,2.9055555E0,2.3877265E0,1.4841511E0,1.4746211E1,5.228029E2,1.1928145E1,4.467624E0,2.1248195E0,2.9050643E0,1.1997645E1,1.7129035E0,6.550114E0,1.244231E0,1.1395199E0,1.3802406E0,5.587569E0,9.325677E0,2.166178E0,3.2788138E0,2.7625008E0,1.1559675E0,1.4532208E1,1.6250913E0,4.3302765E0,2.1636248E0,1.715797E0,1.1897587E0,3.6848214E0,1.106139E1,5.1284894E2,9.953989E0,7.418746E0,4.5093994E0,3.074631E0,1.3929935E0,1.1995968E0,1.7054676E0,3.210206E0,8.787439E0,3.3801107E0,3.1700034E0,1.4420948E0,4.1454744E0,1.2099442E0,2.0688696E0,2.8342052E0,1.4960711E0,1.7031428E0,1.9816787E0,9.379148E0,1.6822424E0,4.845934E0,5.08003E2,5.2314854E0,4.722504E0,6.27037E0,1.148376E0,2.15751E0,2.3518894E0,1.8858252E0,1.1888057E0,1.2250346E0,1.9851716E0,7.559441E0,1.2279985E0,1.2398307E0,1.9301727E0,1.4396212E0,1.394584E0,7.4368014E0,1.9423459E0,2.5036325E0,2.3423014E0,5.063021E2,1.7008939E0,3.0358021E0,2.195683E0,3.5185695E0,1.2039349E0,1.1639767E0,5.1063933E0,1.2299107E0,6.3295302E0],"tree_param":{"num_deleted":"0","num_feature":"43","num_nodes":"155","size_leaf_vector":"0"}},{"base_weights":[-2.2704406E-1,-7.562622E-1,1.3195875E0,-1.0016161E0,1.0991435E0,1.3537242E0,-2.9435095E-1,-1.0513754E0,1.117942E0,1.3069872E0,-3.77665E-1,8.3551586E-1,1.4097083E0,-1.122047E0,5.043014E-1,8.1120104E-1,-1.082693E0,1.341787E0,2.4861524E-1,4.2974418E-1,1.3469201E0,-1.2043513E0,1.0506691E0,1.2296256E0,1.6680644E-1,1.4175282E0,1.5751284E-1,-3.182565E-1,1.0409753E0,1.4454732E0,6.803383E-2,-1.1205348E0,1.8967134E-1,1.4122757E0,3.8216203E-1,9.0625614E-1,-4.7065747E-1,-5.470085E-1,9.42997E-1,3.847887E-2,1.369878E0,-3.8994575E-1,-1.2924106E0,1.3121217E0,1.2049708E-1,-5.989378E-1,7.611715E-1,4.9226E-1,1.4260595E0,1.0974858E0,-9.938172E-1,-1.1750618E0,-4.1064724E-1,9.53381E-1,-7.8793097E-1,3.2855532E-1,1.3910528E0,1.362384E0,3.7044787E-1,-1.0421841E0,3.021356E-1,1.2023257E0,7.55749E-3,8.275331E-1,-1.0050355E-1,-1.2089301E0,-4.5431986E-1,-5.36587E-1,8.094773E-1,1.1939774E0,-3.0918905E-1,-1.1385645E0,5.0997746E-1,4.1298792E-1,1.4025016E0,4.164611E-1,-3.9813828E-1,-4.9603656E-2,-1.2241439E0,-8.245651E-1,6.251862E-1,-8.5039616E-1,-1.2757654E-1,1.4062355E0,-4.3996683E-1,2.6047736E-1,1.338256E0,-9.039513E-1,6.206136E-1,-1.1567948E0,-1.4156965E0,-3.182765E-1,-1.2285314E0,9.7871196E-1,-2.0932138E-1,-4.5119813E-1,-1.1209539E0,-3.504443E-1,9.5339906E-1,1.522007E0,2.0741002E-1,1.1506543E0,-1.2418947E-1,-1.1767489E0,-1.4456539E-1,2.1572988E-1,-1.0645834E0,-1.305578E0,-2.9268977E-1,1.5401788E-1,1.1930232E0,-9.463377E-1,8.551153E-2,-1.275032E0,2.1898802E-2,-8.442122E-1,7.608767E-2],"categories":[],"categories_nodes":[],"categories_segments":[],"categories_sizes":[],"default_left":[1,1,1,1,1,1,1,1,1,1,1,1,1,0,1,1,1,1,1,1,1,1,0,1,1,1,0,0,0,0,1,1,1,0,0,0,0,0,0,0,1,0,0,1,0,1,1,1,0,0,0,1,1,1,1,0,1,0,0,0,0,0,1,0,0,1,1,1,1,1,0,0,0,0,0,0,0,1,1,1,1,1,1,0,0,0,1,0,1,1,0,1,1,1,0,1,1,1,0,0,0,0,0,0,0,0,0,0,0,0,0,0,0,0,0,0,0],"id":10,"left_children":[1,3,5,7,9,11,13,15,17,19,21,23,25,-1,27,29,31,33,35,37,39,41,-1,43,45,47,-1,-1,-1,-1,49,51,53,-1,-1,-1,-1,-1,-1,-1,55,-1,-1,57,-1,59,61,63,-1,-1,-1,65,67,69,71,-1,73,-1,-1,-1,-1,-1,75,-1,-1,77,79,81,83,85,-1,-1,-1,-1,-1,-1,-1,87,89,91,93,95,97,-1,-1,-1,99,-1,101,103,-1,105,107,109,-1,111,113,115,-1,-1,-1,-1,-1,-1,-1,-1,-1,-1,-1,-1,-1,-1,-1,-1,-1,-1,-1],"loss_changes":[7.6611597E2,3.1844183E2,1.3548248E1,6.616504E1,2.5630272E1,5.608246E0,4.376834E0,3.6028015E1,2.5111904E0,1.9438705E0,1.4111542E1,6.4524403E0,1.8295898E0,0E0,1.9310758E0,4.868064E0,2.876709E1,2.3128128E-1,2.423125E0,2.8238854E0,2.0022583E0,2.3638725E-2,0E0,1.2818317E0,5.2458434E0,9.417114E-1,0E0,0E0,0E0,0E0,7.541197E0,2.1815857E1,1.4178069E1,0E0,0E0,0E0,0E0,0E0,0E0,0E0,1.0247269E0,0E0,0E0,1.8380928E-1,0E0,2.3752706E0,2.1072106E0,7.64744E-1,0E0,0E0,0E0,1.2496582E1,6.9848228E0,3.5736237E0,4.4193034E0,0E0,1.548233E-1,0E0,0E0,0E0,0E0,0E0,7.226599E-1,0E0,0E0,8.931824E0,1.0742825E1,4.9282627E0,3.8897645E0,8.7248707E-1,0E0,0E0,0E0,0E0,0E0,0E0,0E0,4.9392467E0,4.854126E0,3.5941095E0,2.3006065E0,1.8734646E0,4.721947E0,0E0,0E0,0E0,1.265811E0,0E0,2.0685372E0,7.4601746E0,0E0,4.2137756E0,3.740902E-1,7.293062E-1,0E0,2.8905253E0,2.2213202E0,3.398417E0,0E0,0E0,0E0,0E0,0E0,0E0,0E0,0E0,0E0,0E0,0E0,0E0,0E0,0E0,0E0,0E0,0E0,0E0,0E0],"parents":[2147483647,0,0,1,1,2,2,3,3,4,4,5,5,6,6,7,7,8,8,9,9,10,10,11,11,12,12,14,14,15,15,16,16,17,17,18,18,19,19,20,20,21,21,23,23,24,24,25,25,30,30,31,31,32,32,40,40,43,43,45,45,46,46,47,47,51,51,52,52,53,53,54,54,56,56,62,62,65,65,66,66,67,67,68,68,69,69,77,77,78,78,79,79,80,80,81,81,82,82,86,86,88,88,89,89,91,91,92,92,93,93,95,95,96,96,97,97],"right_children":[2,4,6,8,10,12,14,16,18,20,22,24,26,-1,28,30,32,34,36,38,40,42,-1,44,46,48,-1,-1,-1,-1,50,52,54,-1,-1,-1,-1,-1,-1,-1,56,-1,-1,58,-1,60,62,64,-1,-1,-1,66,68,70,72,-1,74,-1,-1,-1,-1,-1,76,-1,-1,78,80,82,84,86,-1,-1,-1,-1,-1,-1,-1,88,90,92,94,96,98,-1,-1,-1,100,-1,102,104,-1,106,108,110,-1,112,114,116,-1,-1,-1,-1,-1,-1,-1,-1,-1,-1,-1,-1,-1,-1,-1,-1,-1,-1,-1],"split_conditions":[5.5E-2,1.05000004E-1,5.6400003E0,3.4650002E0,1.145E0,1.55E-1,6.5E-2,9.45E-1,7.75E1,1.3499999E-1,1.6E-1,5E-1,1.5E-1,-5.6102347E-2,4.7650003E0,-5.5999994E-1,1.05000004E-1,6.165E0,2.0149999E0,-8.844999E0,3.2649999E0,-2.4000001E-1,5.2533455E-2,1.57E0,7.8499997E-1,-7.1400003E0,7.875643E-3,-1.5912825E-2,5.204877E-2,7.2273664E-2,-2E-2,5E-3,5.95E-1,7.061379E-2,1.9108102E-2,4.5312807E-2,-2.3532873E-2,-2.7350426E-2,4.714985E-2,1.9239435E-3,-2.6799998E0,-1.9497288E-2,-6.462053E-2,1.5E0,6.024854E-3,8.65E1,2.85E-1,-8.225E0,7.130297E-2,5.487429E-2,-4.969086E-2,3.5E-2,9.5E-2,1.85E1,3.5500002E-1,1.6427767E-2,-2.57E0,6.81192E-2,1.8522395E-2,-5.2109208E-2,1.51067795E-2,6.0116287E-2,-3E-1,4.1376658E-2,-5.0251777E-3,-6.55E-1,-3.82E0,-2.4450002E0,-2.5E-1,-6.45E-1,-1.5459453E-2,-5.6928225E-2,2.5498873E-2,2.0649396E-2,7.012508E-2,2.0823056E-2,-1.9906914E-2,5E-1,5E-1,5E-1,-1.75E-1,4.05E1,6.0000002E-2,7.031178E-2,-2.1998342E-2,1.3023868E-2,4.05E-1,-4.5197565E-2,-3.05E0,2.4999999E-2,-7.078483E-2,3.3E1,5E-3,-1.69E0,-1.0466069E-2,-8.24E0,1.14999995E-1,4E-2,4.7669955E-2,7.610035E-2,1.0370501E-2,5.7532717E-2,-6.2094736E-3,-5.8837444E-2,-7.2282697E-3,1.0786494E-2,-5.322917E-2,-6.52789E-2,-1.4634489E-2,7.700894E-3,5.9651162E-2,-4.7316886E-2,4.2755767E-3,-6.37516E-2,1.0949401E-3,-4.221061E-2,3.8043836E-3],"split_indices":[41,39,0,1,2,41,42,8,20,39,40,19,40,0,8,7,40,8,0,4,8,13,0,0,4,5,0,0,0,0,13,41,2,0,0,0,0,0,0,0,2,0,0,31,0,20,7,5,0,0,0,39,9,20,40,0,7,0,0,0,0,0,13,0,0,13,4,4,14,14,0,0,0,0,0,0,0,19,17,17,14,20,42,0,0,0,12,0,4,40,0,20,9,5,0,4,42,7,0,0,0,0,0,0,0,0,0,0,0,0,0,0,0,0,0,0,0],"split_type":[0,0,0,0,0,0,0,0,0,0,0,0,0,0,0,0,0,0,0,0,0,0,0,0,0,0,0,0,0,0,0,0,0,0,0,0,0,0,0,0,0,0,0,0,0,0,0,0,0,0,0,0,0,0,0,0,0,0,0,0,0,0,0,0,0,0,0,0,0,0,0,0,0,0,0,0,0,0,0,0,0,0,0,0,0,0,0,0,0,0,0,0,0,0,0,0,0,0,0,0,0,0,0,0,0,0,0,0,0,0,0,0,0,0,0,0,0],"sum_hessian":[9.3377454E2,6.960984E2,2.3767618E2,6.152054E2,8.0892975E1,2.3291106E2,4.7651215E0,6.0158636E2,1.3619019E1,7.101362E1,9.879353E0,2.426154E1,2.0864952E2,2.1411655E0,2.623956E0,9.536102E0,5.920503E2,1.0398108E1,3.2209115E0,3.6039526E0,6.740967E1,6.3569264E0,3.5224264E0,1.4737225E1,9.524315E0,2.0722339E2,1.4261267E0,1.1967245E0,1.4272314E0,4.635132E0,4.900971E0,5.7506635E2,1.6983917E1,9.247168E0,1.1509398E0,1.5467422E0,1.6741693E0,1.218776E0,2.3851767E0,1.2085208E0,6.620115E1,1.1499518E0,5.206975E0,1.3546616E1,1.1906087E0,4.158745E0,5.3655705E0,2.4295151E0,2.0479388E2,2.4714096E0,2.4295614E0,5.334373E2,4.1629025E1,9.548971E0,7.4349465E0,1.6484951E0,6.455265E1,1.2436068E1,1.1105481E0,2.682564E0,1.4761807E0,3.0088325E0,2.3567379E0,1.2988262E0,1.1306888E0,5.0884872E2,2.4588634E1,3.8241955E1,3.3870673E0,8.066198E0,1.4827735E0,5.950242E0,1.4847045E0,1.1758171E0,6.3376835E1,1.160513E0,1.1962248E0,6.6462684E0,5.0220245E2,1.848491E1,6.103726E0,2.1028723E1,1.7213234E1,2.2073205E0,1.1797469E0,1.4553412E0,6.610857E0,2.7684684E0,3.8778E0,3.7677042E2,1.25432014E2,8.996955E0,9.487954E0,4.1660457E0,1.9376804E0,9.572504E0,1.1456219E1,1.4831243E1,2.381991E0,5.389256E0,1.2216008E0,1.9471768E0,1.9306233E0,3.6932733E2,7.443105E0,5.658823E0,3.3381317E0,8.401209E0,1.0867453E0,1.2138144E0,2.9522314E0,4.5820913E0,4.9904127E0,9.9932785E0,1.46294E0,6.419993E0,8.411249E0],"tree_param":{"num_deleted":"0","num_feature":"43","num_nodes":"117","size_leaf_vector":"0"}},{"base_weights":[-2.1874717E-1,-5.9698874E-1,1.149383E0,-8.0373615E-1,1.0856415E0,1.1935732E0,-8.5521185E-1,-9.110343E-1,1.1781744E0,1.29906E0,-4.1986182E-1,1.2169123E0,-8.0716777E-1,-1.1240232E0,3.4040887E-2,-9.900959E-1,-7.323187E-3,1.2308335E0,-1.7148979E-1,1.3232312E0,4.3295983E-2,-1.1668402E0,9.8573244E-1,7.412337E-1,1.2780471E0,-8.676897E-1,-1.373406E0,8.869856E-1,-2.3672731E-1,1.2766236E0,-1.6958203E-2,1.0573431E0,1.4410391E0,8.895315E-1,2.4988966E-1,1.2947634E0,5.26339E-1,-9.2852044E-1,5.775003E-1,-1.3853306E0,-9.68973E-3,1.2533976E0,-8.97765E-1,-5.1290184E-1,4.92179E-1,1.3193743E0,4.833497E-1,1.1140182E0,-5.0906163E-2,1.5174668E-1,1.0038235E0,5.3616935E-1,-6.673421E-1,1.3141085E0,5.7442033E-1,-2.6182908E-1,7.9240954E-1,-9.631744E-1,2.999805E-1,8.213142E-2,1.058469E0,-1.3968812E0,-5.492866E-1,-8.225841E-1,1.6544545E-1,9.291264E-1,-3.097386E-1,1.3442295E0,3.6954954E-1,7.3662186E-1,1.1273118E-2,2.30416E-1,1.1583043E0,-4.317292E-1,7.905062E-1,1.138628E0,2.9141778E-1,3.0839965E-3,6.9721764E-1,-7.1426404E-1,1.0252821E0,9.691781E-1,2.3263529E-1,-1.0017539E0,-1.8819258E-1,8.0608165E-1,-7.063664E-1,-6.3860345E-1,6.41055E-1,1.1716893E0,1.8873902E-1,-8.5752594E-1,3.3843048E-2,-9.365923E-1,1.2792952E-1,-3.6592555E-1,5.430664E-1,2.4713632E-1,1.2060727E0,-5.8503604E-1,3.052476E-1,4.0280807E-1,1.3672332E0,3.8716197E-1,1.2158611E0,1.1910359E0,2.9704413E-1,6.51009E-1,-2.962607E-1,9.0781015E-1,2.8964326E-1,-6.1071503E-1,-1.1039906E0,5.231772E-1,-5.2931076E-1,-5.5382293E-1,1.0957768E0,3.265898E-1,-1.1822423E0,-7.983747E-1,-8.611103E-2,1.1101685E0,-2.2672237E-1,4.509311E-1,1.3709008E0,-1.1205888E0,2.7814893E-2,-7.2412056E-1,2.7459418E-2,7.936588E-1,-3.361643E-1,-2.2188675E-1,5.697892E-1,-9.1633195E-1,1.0163517E-1,1.2493238E0,3.4067693E-1,3.697055E-1,-1.3021673E0,-1.1338133E0,-3.502243E-1,8.513662E-1,-5.826859E-1,-2.1689227E-1,-1.2574097E0,-3.649068E-2,1.3663073E0,-1.019601E-1,-1.1936861E0,5.060848E-1,-3.5250488E-1,4.4323877E-1,-4.013295E-1,1.1437435E0,3.285933E-1,1.2868572E0,3.4427252E-1],"categories":[],"categories_nodes":[],"categories_segments":[],"categories_sizes":[],"default_left":[1,1,1,1,1,1,1,1,1,1,1,1,0,0,0,1,1,1,0,1,0,0,0,1,1,1,1,1,1,1,0,1,0,1,1,1,1,1,1,1,0,0,0,1,1,1,1,1,0,1,1,1,0,0,1,0,1,1,1,1,1,0,1,1,1,1,1,1,0,0,0,0,1,0,0,1,1,0,1,0,0,0,0,1,1,1,1,1,1,1,0,0,0,1,0,1,1,1,0,1,0,0,0,0,1,0,0,0,0,0,0,1,1,1,1,0,1,0,0,0,0,0,0,0,0,1,1,0,1,1,0,0,0,0,0,1,0,0,0,0,0,0,0,0,0,0,0,0,0,0,0,0,0,0,0,0,0],"id":11,"left_children":[1,3,5,7,9,11,13,15,17,19,21,23,-1,-1,-1,25,27,29,-1,31,-1,-1,-1,33,35,37,39,41,43,45,-1,47,-1,49,51,53,55,57,59,61,-1,-1,-1,63,65,67,69,71,-1,73,75,77,-1,-1,79,-1,81,83,85,87,89,-1,91,93,95,97,99,101,-1,-1,-1,-1,103,-1,-1,105,107,-1,109,-1,-1,-1,-1,111,113,115,117,119,121,123,-1,-1,-1,125,-1,127,129,131,-1,133,-1,-1,-1,-1,135,-1,-1,-1,-1,-1,-1,137,139,141,143,-1,145,-1,-1,-1,-1,-1,-1,-1,-1,147,149,-1,151,153,-1,-1,-1,-1,-1,155,-1,-1,-1,-1,-1,-1,-1,-1,-1,-1,-1,-1,-1,-1,-1,-1,-1,-1,-1,-1,-1],"loss_changes":[4.7950177E2,2.532702E2,1.8803436E1,1.3860056E2,2.6191002E1,1.0173431E1,1.2125399E0,4.3866943E1,2.602665E0,2.0720596E0,1.2348692E1,4.722229E0,0E0,0E0,0E0,2.5301697E1,1.0551457E1,1.8790932E0,0E0,6.3118744E-1,0E0,0E0,0E0,1.5690289E0,1.4720154E0,3.8399902E1,2.1812134E0,7.992589E0,8.487062E0,4.2617416E-1,0E0,1.6192741E0,0E0,1.4071064E0,2.2196224E0,1.5718384E0,1.3426572E0,1.7900574E1,4.204847E0,5.2459717E-1,0E0,0E0,0E0,6.4709644E0,4.4050884E0,1.923294E-1,3.721888E-1,6.609478E-1,0E0,1.7048843E0,1.1888962E0,5.0938034E-1,0E0,0E0,4.3016214E0,0E0,1.9955921E-1,1.1847839E1,6.738085E0,4.420779E0,6.705456E-1,0E0,6.529403E-1,2.381567E0,2.2623525E0,1.1857486E0,1.0072154E0,5.7056427E-2,0E0,0E0,0E0,0E0,5.2041245E-1,0E0,0E0,2.1831894E-1,1.0093305E0,0E0,1.2943292E-1,0E0,0E0,0E0,0E0,1.4647675E1,5.2081947E0,3.965723E0,2.6403277E0,3.594011E-1,2.7380095E0,5.046816E-1,0E0,0E0,0E0,3.3594131E0,0E0,7.0608866E-1,1.6801015E0,6.601145E-1,0E0,9.402565E-1,0E0,0E0,0E0,0E0,1.6926384E-1,0E0,0E0,0E0,0E0,0E0,0E0,5.584763E1,6.4047546E0,3.0690093E0,2.9647315E0,0E0,2.3056622E0,0E0,0E0,0E0,0E0,0E0,0E0,0E0,0E0,1.052908E0,9.0250313E-1,0E0,7.6343054E-1,4.8534155E-1,0E0,0E0,0E0,0E0,0E0,2.0884132E-1,0E0,0E0,0E0,0E0,0E0,0E0,0E0,0E0,0E0,0E0,0E0,0E0,0E0,0E0,0E0,0E0,0E0,0E0,0E0,0E0,0E0],"parents":[2147483647,0,0,1,1,2,2,3,3,4,4,5,5,6,6,7,7,8,8,9,9,10,10,11,11,15,15,16,16,17,17,19,19,23,23,24,24,25,25,26,26,27,27,28,28,29,29,31,31,33,33,34,34,35,35,36,36,37,37,38,38,39,39,43,43,44,44,45,45,46,46,47,47,49,49,50,50,51,51,54,54,56,56,57,57,58,58,59,59,60,60,62,62,63,63,64,64,65,65,66,66,67,67,72,72,75,75,76,76,78,78,83,83,84,84,85,85,86,86,87,87,88,88,89,89,93,93,95,95,96,96,97,97,99,99,104,104,111,111,112,112,113,113,114,114,116,116,125,125,126,126,128,128,129,129,135,135],"right_children":[2,4,6,8,10,12,14,16,18,20,22,24,-1,-1,-1,26,28,30,-1,32,-1,-1,-1,34,36,38,40,42,44,46,-1,48,-1,50,52,54,56,58,60,62,-1,-1,-1,64,66,68,70,72,-1,74,76,78,-1,-1,80,-1,82,84,86,88,90,-1,92,94,96,98,100,102,-1,-1,-1,-1,104,-1,-1,106,108,-1,110,-1,-1,-1,-1,112,114,116,118,120,122,124,-1,-1,-1,126,-1,128,130,132,-1,134,-1,-1,-1,-1,136,-1,-1,-1,-1,-1,-1,138,140,142,144,-1,146,-1,-1,-1,-1,-1,-1,-1,-1,148,150,-1,152,154,-1,-1,-1,-1,-1,156,-1,-1,-1,-1,-1,-1,-1,-1,-1,-1,-1,-1,-1,-1,-1,-1,-1,-1,-1,-1,-1],"split_conditions":[3.78E0,1.14999995E-1,5E-1,3.12E0,1.145E0,7.955E0,7.9350004E0,1.445E0,5.915E0,2.67E0,1.6E-1,5.1949997E0,-4.035839E-2,-5.620116E-2,1.7020444E-3,2.35E-1,5.5E0,4.1E-1,-8.5744895E-3,3.5500002E-1,2.1647993E-3,-5.834201E-2,4.9286623E-2,2.9E1,6.35E-1,3.5E-2,2.9450002E0,2.835E0,5E-1,4.45E-1,-8.479102E-4,2.5E0,7.205196E-2,-1.7500001E-1,3.75E-1,5E-3,6.55E-1,2.665E2,-1.4500001E-1,2.15E-1,-4.844865E-4,6.266988E-2,-4.488825E-2,5.55E-1,2.8500003E-1,2.145E0,-3.08E0,-6.15E-1,-2.545308E-3,3.7E-1,4.9849997E0,4.15E1,-3.336711E-2,6.5705426E-2,-1.20000005E-1,-1.3091454E-2,-6.5E-2,2.4999999E-2,1.75E1,1.05000004E-1,3.9E-1,-6.984406E-2,-2.6999998E-1,2.4999999E-2,7.5E-2,7E0,7.2E1,-1.5E1,1.8477477E-2,3.6831092E-2,5.636559E-4,1.15208E-2,-1.3675E1,-2.1586461E-2,3.952531E-2,8.8E1,8.05E-1,1.5419982E-4,4.46E0,-3.5713203E-2,5.1264107E-2,4.8458904E-2,1.16317645E-2,5.5E0,1.25E1,-1.1805E1,-2.6999998E-1,4.85E-1,-3.805E0,-6.005E0,9.436951E-3,-4.28763E-2,1.6921525E-3,2.55E-1,6.396476E-3,1.8499999E0,5.75E-1,8E-2,6.0303636E-2,3.2E-1,1.526238E-2,2.0140404E-2,6.836166E-2,1.9358099E-2,3.45E-1,5.9551794E-2,1.4852206E-2,3.255045E-2,-1.4813036E-2,4.539051E-2,1.4482163E-2,1.64E0,5.15E1,2.4999999E-2,2.1000001E-1,-2.7691146E-2,-2.75E-1,1.632949E-2,-5.9112113E-2,-3.9918736E-2,-4.3055518E-3,5.5508424E-2,-1.1336119E-2,2.2546556E-2,6.8545036E-2,-2.52E0,2.3649998E0,-3.620603E-2,2.385E0,-1.7E-1,-1.6808216E-2,-1.1094338E-2,2.848946E-2,-4.5816597E-2,5.081759E-3,5.55E-1,1.7033847E-2,1.8485276E-2,-6.510837E-2,-5.6690663E-2,-1.7511215E-2,4.256831E-2,-2.9134294E-2,-1.0844613E-2,-6.287049E-2,-1.8245339E-3,6.8315364E-2,-5.0980053E-3,-5.9684306E-2,2.5304241E-2,-1.7625244E-2,2.2161938E-2,-2.0066475E-2,5.7187177E-2,1.6429666E-2,6.4342864E-2,1.7213626E-2],"split_indices":[4,39,17,1,2,0,4,4,0,4,40,4,0,0,0,2,21,15,0,39,0,0,0,21,12,40,3,0,33,13,0,33,0,15,12,40,12,37,13,40,0,0,0,7,12,4,0,13,0,12,4,21,0,0,7,0,7,39,21,40,15,0,15,39,12,33,21,4,0,0,0,0,4,0,0,33,7,0,4,0,0,0,0,21,21,4,13,7,4,4,0,0,0,15,0,7,12,15,0,15,0,0,0,0,39,0,0,0,0,0,0,0,22,9,13,0,15,0,0,0,0,0,0,0,0,7,4,0,4,13,0,0,0,0,0,9,0,0,0,0,0,0,0,0,0,0,0,0,0,0,0,0,0,0,0,0,0],"split_type":[0,0,0,0,0,0,0,0,0,0,0,0,0,0,0,0,0,0,0,0,0,0,0,0,0,0,0,0,0,0,0,0,0,0,0,0,0,0,0,0,0,0,0,0,0,0,0,0,0,0,0,0,0,0,0,0,0,0,0,0,0,0,0,0,0,0,0,0,0,0,0,0,0,0,0,0,0,0,0,0,0,0,0,0,0,0,0,0,0,0,0,0,0,0,0,0,0,0,0,0,0,0,0,0,0,0,0,0,0,0,0,0,0,0,0,0,0,0,0,0,0,0,0,0,0,0,0,0,0,0,0,0,0,0,0,0,0,0,0,0,0,0,0,0,0,0,0,0,0,0,0,0,0,0,0,0,0],"sum_hessian":[9.242767E2,7.2453186E2,1.9974484E2,6.4571423E2,7.88176E1,1.958324E2,3.9124463E0,6.130641E2,3.265018E1,6.915183E1,9.665762E0,1.9396156E2,1.870833E0,2.8015575E0,1.1108888E0,5.636567E2,4.940738E1,3.1508863E1,1.1413183E0,6.7793205E1,1.3586287E0,6.422498E0,3.243264E0,2.3583925E1,1.7037764E2,4.297E2,1.3395668E2,9.501247E0,3.990613E1,3.0371225E1,1.1376381E0,2.3877558E1,4.3915646E1,1.7493591E1,6.090333E0,1.659645E2,4.4131446E0,4.1268677E2,1.7013243E1,1.3277979E2,1.1768912E0,8.129888E0,1.3713598E0,2.91557E1,1.075043E1,2.8188885E1,2.1823404E0,2.2710932E1,1.1666276E0,2.6586983E0,1.4834893E1,4.958249E0,1.1320843E0,1.6082132E2,5.1431746E0,1.1178203E0,3.2953243E0,4.0157498E2,1.111179E1,8.957903E0,8.05534E0,1.3030862E2,2.471163E0,1.987132E1,9.284379E0,6.8560743E0,3.894356E0,2.7065393E1,1.1234914E0,1.0556116E0,1.1267289E0,1.3799931E0,2.1330938E1,1.5588644E0,1.099834E0,1.1971337E1,2.8635554E0,1.3868363E0,3.5714126E0,1.1816065E0,3.961568E0,1.948609E0,1.3467153E0,3.8225336E2,1.932163E1,7.525932E0,3.5858583E0,3.850327E0,5.107576E0,6.8202953E0,1.2350442E0,1.308787E0,1.1623759E0,1.775622E1,2.115102E0,3.8698595E0,5.4145193E0,2.5265985E0,4.329476E0,2.7237673E0,1.1705887E0,1.0870885E0,2.5978306E1,2.0181751E0,1.9312763E1,1.087866E1,1.0926775E0,1.7096708E0,1.1538846E0,1.5455058E0,2.0259068E0,8.067144E1,3.015819E2,6.089287E0,1.3232344E1,1.1615533E0,6.3643785E0,1.2298979E0,2.3559604E0,2.6414294E0,1.2088977E0,3.134024E0,1.9735522E0,2.183576E0,4.636719E0,1.4775331E1,2.9808888E0,1.5854719E0,2.2843876E0,4.289329E0,1.12519E0,1.1570141E0,1.3695844E0,1.611714E0,1.1120534E0,1.818978E1,1.1229843E0,3.3556496E1,4.7114944E1,2.8961896E2,1.1962946E1,4.873194E0,1.2160928E0,1.0167486E1,3.0648577E0,1.3942124E0,4.970166E0,1.1496423E0,1.3625689E1,1.1739321E0,1.8069568E0,1.1426787E0,1.1417089E0,1.6145991E0,2.67473E0,1.7060404E1,1.129375E0],"tree_param":{"num_deleted":"0","num_feature":"43","num_nodes":"157","size_leaf_vector":"0"}},{"base_weights":[-2.0301443E-1,-7.144246E-1,1.2385187E0,-9.3198776E-1,1.130568E0,7.0468915E-1,1.3675528E0,-9.948181E-1,